SVM-light Version V6.02
0 # kernel type
3 # kernel parameter -d 
1 # kernel parameter -g 
1 # kernel parameter -s 
1 # kernel parameter -r 
empty# kernel parameter -u 
3402 # highest feature index 
900 # number of training documents 
62 # number of support vectors plus 1 
1.3246887 # threshold b, each following line is a SV (starting with alpha*y)
0.46684918630282840057432736102783 1:0.0061229891 2:0.0031278746 3:0.012569242 4:0.012007864 5:0.0052397354 6:0.0016858835 7:0.0035527889 8:0.0048721428 9:0.0061259116 10:0.0034298631 11:0.0029232041 12:0.0067068487 13:0.010521505 14:0.015417599 15:0.0054504159 16:0.0032162652 17:0.0017518515 18:0.003382457 19:0.0025453721 20:0.0041465983 21:0.0056330431 22:0.010908992 23:0.011219513 24:0.010758004 25:0.0039410633 26:0.0020424698 27:0.001507771 28:0.0097358944 29:0.01149731 30:0.0197166 31:0.0045680893 32:0.002072328 33:0.00078660675 34:0.0012096384 35:0.0011507351 36:0.0020390784 37:0.012866994 38:0.01974804 39:0.043713283 40:0.011543129 41:0.0043801107 42:0.0038828473 43:0.0052978569 44:0.00588866 45:0.0099770958 46:0.010474867 47:0.014913762 48:0.019980418 49:0.012679348 50:0.0079064099 51:0.011676735 52:0.0096260738 53:0.018905083 54:0.019069269 55:0.0083039161 56:0.0053613577 57:0.037117649 58:0.047881685 59:0.046674442 60:0.0092510022 61:0.0035172957 62:0.0017600914 63:0.0038885376 64:0.0068431529 65:0.0019913763 66:0.036197841 67:0.084203944 68:0.064296462 69:0.0091170911 70:0.0035146242 71:0.0024690817 72:0.0029474071 73:0.005171123 74:0.004773234 75:0.024627022 76:0.067658745 77:0.048416261 78:0.010050767 79:0.0026389307 80:0.0022144702 81:0.0029975136 82:0.0035823127 83:0.0030531338 84:0.007004953 85:0.010989162 86:0.016102877 87:0.0056926743 88:0.0033592209 89:0.0018297173 90:0.0035327994 91:0.0026585083 92:0.0043309047 93:0.005883419 94:0.011393872 95:0.011718195 96:0.011236172 97:0.0041162348 98:0.0021332528 99:0.0015747879 100:0.0048133479 101:0.0034506242 102:0.0042415331 103:0.0038901018 104:0.010365112 105:0.0058418778 106:0.0028400084 107:0.0031457113 108:0.0046428782 109:0.013438903 110:0.020625794 111:0.045656241 112:0.012056195 113:0.0045747967 114:0.0040554306 115:0.0055333343 116:0.0061503975 117:0.010420554 118:0.010940451 119:0.015576644 120:0.020868501 121:0.013242915 122:0.0082578314 123:0.01219574 124:0.010053931 125:0.01974537 126:0.019916855 127:0.010791716 128:0.0095282719 129:0.0076290695 130:0.0088970531 131:0.0098210303 132:0.010304705 133:0.013631325 134:0.011732491 135:0.016877005 136:0.0071473154 137:0.0020798882 138:0.037806749 139:0.087946616 140:0.067154296 141:0.0095223254 142:0.0036708412 143:0.0025788266 144:0.0030784125 145:0.0054009678 146:0.004985393 147:0.025721638 148:0.070666023 149:0.050568253 150:0.0104975 151:0.0027562252 152:0.0023128984 153:0.0031307463 154:0.015294661 155:0.0086414013 156:0.0058617019 157:0.0039260956 158:0.0094719594 159:0.0096103447 160:0.0083489139 161:0.012291814 162:0.023580676 163:0.0032323422 164:0.0052657225 165:0.0071533439 166:0.013853218 167:0.014247545 168:0.01366148 169:0.0050047161 170:0.0025937115 171:0.0019147029 172:0.0058522997 173:0.004195435 174:0.0051570605 175:0.0047297729 176:0.012602402 177:0.0071028364 178:0.0034530191 179:0.0038247074 180:0.0056450348 181:0.0049546151 182:0.0059664468 183:0.0032175465 184:0.0044289394 185:0.0075814761 186:0.0039040211 187:0.0018075354 188:0.0020415413 189:0.0032743567 190:0.013301927 191:0.018938834 192:0.025372928 193:0.016101373 194:0.010040269 195:0.014828167 196:0.012224053 197:0.024007373 198:0.02421587 199:0.013121087 200:0.011584932 201:0.0092757903 202:0.010817465 203:0.011940882 204:0.012528957 205:0.016573621 206:0.014264927 207:0.020519875 208:0.011061269 209:0.0077320896 210:0.0064809211 211:0.0042383824 212:0.017880764 213:0.011204687 214:0.0086685289 215:0.011601769 216:0.022889361 217:0.0065667564 218:0.0060614813 219:0.031273603 220:0.085919149 221:0.061483316 222:0.012763366 223:0.0033511512 224:0.0028121332 225:0.0038065119 226:0.018595984 227:0.010506632 228:0.0071269395 229:0.0047735358 230:0.011516465 231:0.011684719 232:0.010151012 233:0.014944979 234:0.028670521 235:0.0075075952 236:0.0072305929 237:0.0040536625 238:0.010140822 239:0.0072441744 240:0.017022159 241:0.020407213 242:0.027114974 243:0.029186295 244:0.0066178218 245:0.004744227 246:0.0058316397 247:0.0053484603 248:0.014250884 249:0.0080319364 250:0.003904698 251:0.0043250057 252:0.0063834446 253:0.0056027137 254:0.0067468998 255:0.0036384242 256:0.0050082756 257:0.0085731857 258:0.0044146944 259:0.0020439737 260:0.0023085892 261:0.0037026654 262:0.0014212886 263:0.00071406848 264:0.0050830957 265:0.013754047 266:0.011510314 267:0.0031753231 268:0.0030650713 269:0.00076183147 270:0.0011467504 271:0.014837418 272:0.013100322 273:0.010489129 274:0.012232466 275:0.013502833 276:0.014167831 277:0.018741567 278:0.01613088 279:0.023204017 280:0.01250816 281:0.0087435013 282:0.0073286709 283:0.0047927927 284:0.020219693 285:0.012670338 286:0.0098024327 287:0.013119361 288:0.025883449 289:0.011580043 290:0.012271644 291:0.013054421 292:0.017599275 293:0.018163059 294:0.016729817 295:0.014438829 296:0.025225876 297:0.023026109 298:0.021028468 299:0.011880973 300:0.0080591934 301:0.005397948 302:0.013022899 303:0.013213162 304:0.011478835 305:0.016899887 306:0.032420825 307:0.0084896414 308:0.008176405 309:0.0045839101 310:0.011467313 311:0.0081917634 312:0.019248776 313:0.023076618 314:0.030661803 315:0.033004068 316:0.012575976 317:0.010774096 318:0.016158616 319:0.0082680304 320:0.0088183684 321:0.021915538 322:0.034983154 323:0.039248083 324:0.021279415 325:0.0053032865 326:0.0063863238 327:0.003443975 328:0.0047406172 329:0.0081150075 330:0.0041787587 331:0.0019347372 332:0.0021852108 333:0.0035047831 334:0.0013453304 335:0.00067590637 336:0.0048114387 337:0.013018986 338:0.010895167 339:0.0030056238 340:0.002901264 341:0.00072111678 342:0.0010854644 343:0.0047211726 344:0.004843493 345:0.0071197227 346:0.012318195 347:0.0053957608 348:0.0070562349 349:0.0080827018 350:0.0083737979 351:0.0051143188 352:0.011839683 353:0.0082762204 354:0.0069370028 355:0.0045366506 356:0.019139087 357:0.011993195 358:0.0092785591 359:0.012418221 360:0.024500154 361:0.010961169 362:0.011615807 363:0.012356751 364:0.016658714 365:0.017192367 366:0.015835721 367:0.013667172 368:0.023877725 369:0.021795519 370:0.012340834 371:0.017102005 372:0.01512548 373:0.01719312 374:0.015650632 375:0.018617386 376:0.012886897 377:0.015196584 378:0.020443089 379:0.0080359271 380:0.0077394317 381:0.0043389313 382:0.010854463 383:0.0077539687 384:0.01822006 385:0.021843329 386:0.029023137 387:0.031240223 388:0.011903875 389:0.010198293 390:0.015295048 391:0.0078261606 392:0.0083470866 393:0.020744301 394:0.033113543 395:0.037150539 396:0.020142175 397:0.023401536 398:0.011266482 399:0.006113722 400:0.005884368 401:0.0049363896 402:0.0080088992 403:0.016870497 404:0.028608985 405:0.052421827 406:0.0012439475 407:0.00062497065 408:0.004448853 409:0.012037887 410:0.010074116 411:0.0027791227 412:0.0026826274 413:0.00066677405 414:0.0010036647 415:0.0043653892 416:0.0044784918 417:0.0065831868 418:0.011389907 419:0.0049891411 420:0.0065244837 421:0.0074735968 422:0.007742756 423:0.0047289087 424:0.0062675136 425:0.0064681182 426:0.0065833405 427:0.002765934 428:0.0050594378 429:0.0077933311 430:0.013893403 431:0.016205819 432:0.011916923 433:0.010135145 434:0.010740451 435:0.011425558 436:0.015403328 437:0.015896766 438:0.014642355 439:0.012637226 440:0.02207832 441:0.020153029 442:0.01141084 443:0.015813213 444:0.013985638 445:0.015897462 446:0.014471215 447:0.017214397 448:0.011915752 449:0.014051383 450:0.018902518 451:0.0078969114 452:0.013070385 453:0.013878588 454:0.013599755 455:0.0088758441 456:0.018239856 457:0.015007397 458:0.018026564 459:0.026482856 460:0.01100681 461:0.0094297593 462:0.014142428 463:0.007236388 464:0.0077180578 465:0.01918103 466:0.030618137 467:0.034350909 468:0.01862428 469:0.021638017 470:0.01041745 471:0.0056529976 472:0.0054409271 473:0.0045643877 474:0.007405356 475:0.015599152 476:0.026453039 477:0.048471365 478:0.045089155 479:0.011416293 480:0.0021545677 481:0.0024367133 482:0.0020069657 483:0.0024268746 484:0.0075823227 485:0.013540367 486:0.042749576 487:0.0041785375 488:0.0042867991 489:0.0063014068 490:0.010902384 491:0.0047755907 492:0.0062452159 493:0.0071537048 494:0.007411343 495:0.0045264969 496:0.0059992452 497:0.0061912634 498:0.0063015539 499:0.0026475438 500:0.0048428783 501:0.0074597532 502:0.013298724 503:0.015512161 504:0.011406843 505:0.0061971834 506:0.0046016802 507:0.0070141605 508:0.0029192048 509:0.0039471346 510:0.010314276 511:0.019993208 512:0.022406928 513:0.017866172 514:0.010922422 515:0.01513636 516:0.01338701 517:0.015217003 518:0.013851804 519:0.01647757 520:0.011405721 521:0.013449942 522:0.018093433 523:0.0075588995 524:0.012510933 525:0.013284543 526:0.013017644 527:0.0084959315 528:0.017459136 529:0.014365036 530:0.017254973 531:0.02534931 532:0.016810952 533:0.014240236 534:0.0069272257 535:0.0062279422 536:0.0046359044 537:0.0084490385 538:0.012150485 539:0.015165958 540:0.027252004 541:0.020711847 542:0.0099715525 543:0.0054110321 544:0.0052080392 545:0.0043690181 546:0.0070883846 547:0.014931462 548:0.02532077 549:0.046396647 550:0.043159205 551:0.010927641 552:0.0020623459 553:0.0023324147 554:0.0019210615 555:0.0023229972 556:0.0072577768 557:0.012960799 558:0.040919766 559:0.035239123 560:0.043695178 561:0.0080808178 562:0.0028293291 563:0.0026847201 564:0.0037061193 565:0.0047812178 566:0.0068274657 567:0.035082377 568:0.0060801827 569:0.006274791 570:0.0063865697 571:0.0026832623 572:0.0049082148 573:0.0075603947 574:0.013478139 575:0.01572144 576:0.011560735 577:0.0062807915 578:0.0046637626 579:0.0071087903 580:0.0029585885 581:0.0040003862 582:0.010453428 583:0.020262942 584:0.022709226 585:0.018107207 586:0.011597971 587:0.0040074 588:0.0036163079 589:0.0024710316 590:0.0079018185 591:0.012152744 592:0.021690482 593:0.020616636 594:0.02788059 595:0.0076608784 596:0.012679721 597:0.013463767 598:0.013193268 599:0.0086105522 600:0.017694682 601:0.014558838 602:0.017487764 603:0.025691302 604:0.017037753 605:0.014432355 606:0.0070206826 607:0.0063119647 608:0.0046984483 609:0.0085630268 610:0.01231441 611:0.015370565 612:0.027619667 613:0.015125171 614:0.0021441085 615:0.0034608976 616:0.0025431137 617:0.0043927738 618:0.0064619314 619:0.011864562 620:0.01989557 621:0.029882072 622:0.043741476 623:0.011075068 624:0.0020901696 625:0.0023638818 626:0.0019469791 627:0.0023543374 628:0.0073556933 629:0.013135656 630:0.041471824 631:0.035714541 632:0.044284683 633:0.0081898384 634:0.0028675003 635:0.0027209402 636:0.0037561194 637:0.0048457221 638:0.0069195768 639:0.035555683 640:0.020741936 641:0.010818875 642:0.0057604024 643:0.0055200262 644:0.0060972022 645:0.0096040769 646:0.0056717317 647:0.015854364 648:0.026225882 649:0.0065228655 650:0.004843513 651:0.0073827771 652:0.0030726183 653:0.004154569 654:0.010856324 655:0.021043915 656:0.023584483 657:0.018805096 658:0.012044979 659:0.0041618533 660:0.0037556875 661:0.0025662701 662:0.0082063703 663:0.012621134 664:0.022526477 665:0.02141124 666:0.028955162 667:0.0071731978 668:0.0049680653 669:0.0038150414 670:0.0043065529 671:0.0073902281 672:0.020117449 673:0.018826425 674:0.022569846 675:0.030592058 676:0.017694421 677:0.014988606 678:0.0072912737 679:0.0065552401 680:0.0048795361 681:0.0088930624 682:0.012789031 683:0.015962977 684:0.028684184 685:0.015708126 686:0.0022267466 687:0.0035942874 688:0.0026411302 689:0.0045620799 690:0.0067109866 691:0.012321845 692:0.020662384 693:0.031033786 694:0.030630263 695:0.0083476799 696:0.002824476 697:0.0015977615 698:0.00191961 699:0.002151846 700:0.0048367679 701:0.015952092 702:0.044348497 703:0.03709105 704:0.045991499 705:0.0085054906 706:0.0029780194 707:0.0028258106 708:0.0039008877 709:0.0050324858 710:0.0071862708 711:0.036926068 712:0.02154137 713:0.011235856 714:0.0059824195 715:0.0057327789 716:0.0063322 717:0.0099742366 718:0.0058903312 719:0.016465422 720:0.027236678 721:0.029885327 722:0.012461712 723:0.012338999 724:0.0039062551 725:0.0020738 726:0.00097414525 727:0.0014090482 728:0.002232743 729:0.0078038885 730:0.012295711 731:0.0042484878 732:0.0038338671 733:0.0026196905 734:0.0083771963 735:0.01288386 736:0.022995394 737:0.021856945 738:0.029557902 739:0.0073225172 740:0.0050714822 741:0.0038944567 742:0.0043961992 743:0.0075440658 744:0.02053622 745:0.019218322 746:0.023039669 747:0.031228872 748:0.021205252 749:0.011910794 750:0.0075830868 751:0.0069174361 752:0.0060806447 753:0.010266616 754:0.014467475 755:0.017852467 756:0.030077763 757:0.016035112 758:0.0022730993 759:0.0036691073 760:0.0026961088 761:0.0046570459 762:0.006850685 763:0.01257834 764:0.021092499 765:0.031679794 766:0.031267874 767:0.0085214479 768:0.0028832711 769:0.001631021 770:0.0019595693 771:0.0021966395 772:0.0049374518 773:0.016284157 774:0.045271672 775:0.030536404 776:0.040202972 777:0.055728104 778:0.0082756178 779:0.0017568481 780:0.00067284878 781:0.0015427396 782:0.0042636772 783:0.003325501 784:0.021989783 785:0.011469745 786:0.0061069513 787:0.0058521144 788:0.0064640134 789:0.010181864 790:0.0060129464 791:0.016808173 792:0.027803646 793:0.03050743 794:0.012721119 795:0.012595852 796:0.0039875689 797:0.0021169689 798:0.0009944234 799:0.0014383794 800:0.0022792204 801:0.0079663368 802:0.0036645795 803:0.011956192 804:0.033371355 805:0.013616019 806:0.0055527226 807:0.0048029353 808:0.0059884959 809:0.0018340077 810:0.001842757 811:0.0066655548 812:0.0046164785 813:0.0035450533 814:0.0040017809 815:0.0068672267 816:0.018693749 817:0.017494092 818:0.020972593 819:0.028427077 820:0.019302757 821:0.010842181 822:0.0069027469 823:0.0062968167 824:0.0055351006 825:0.0093455147 826:0.01316948 827:0.016250778 828:0.027379243 829:0.013441753 830:0.011231104 831:0.0053772605 832:0.0053105038 833:0.0045999368 834:0.0060339556 835:0.0045626289 836:0.0081653316 837:0.0074360399 838:0.028462578 839:0.0077569196 840:0.0026245895 841:0.001484689 842:0.0017837604 843:0.0019995612 844:0.0044944729 845:0.014823173 846:0.041209981 847:0.027796736 848:0.036596037 849:0.050728284 850:0.0075331451 851:0.0015992271 852:0.00061248208 853:0.0014043279 854:0.0038811483 855:0.0030271432 856:0.00787393 857:0.019200651 858:0.1117464 859:0.019991651 860:0.0021442447 861:0.00069704157 862:0.0013882819 863:0.0039497353 864:0.006317284 865:0.027770363 866:0.011579804 867:0.011465776 868:0.0036298118 869:0.0019270383 870:0.00090520561 871:0.0013093307 872:0.0020747331 873:0.0072516124 874:0.0033358005 875:0.010883505 876:0.030377341 877:0.012394416 878:0.0050545428 879:0.0043720249 880:0.0054512196 881:0.0016694639 882:0.0016774284 883:0.0035560983 884:0.0084885219 885:0.038137756 886:0.050550681 887:0.036160666 888:0.0058864993 889:0.005063415 890:0.0034747666 891:0.0019559737 892:0.020194447 893:0.011343034 894:0.0072216187 895:0.0065876981 896:0.0057907943 897:0.0097772302 898:0.013777844 899:0.017001482 900:0.028644025 901:0.014062693 902:0.011749924 903:0.0056256629 904:0.0055558225 905:0.0048124301 906:0.0063126939 907:0.0047733993 908:0.0085425284 909:0.007779547 910:0.0066528106 911:0.0091705238 912:0.0032222173 913:0.0044847205 914:0.0041956506 915:0.0058373157 916:0.0026490819 917:0.0075262235 918:0.0076606032 919:0.029080804 920:0.038286585 921:0.053071674 922:0.0078811385 923:0.0016731032 924:0.0006407756 925:0.0014692008 926:0.0040604374 927:0.003166982 928:0.0082376665 929:0.020087624 930:0.11690851 931:0.020915166 932:0.0022432981 933:0.00072924141 934:0.0014524135 935:0.004132193 936:0.0066091102 937:0.0066772704 938:0.0038676623 939:0.010872493 940:0.012814343 941:0.021172561 942:0.011940848 943:0.0085676257 944:0.0098808324 945:0.0060955207 946:0.0034898976 947:0.011386268 948:0.031780623 949:0.012966976 950:0.005288037 951:0.0045739906 952:0.0057030381 953:0.0017465848 954:0.001754917 955:0.003720372 956:0.0088806488 957:0.039899524 958:0.052885868 959:0.037831105 960:0.0061584259 961:0.005297319 962:0.0036352831 963:0.0020463297 964:0.002393171 965:0.0031025372 966:0.0041362466 967:0.017322179 968:0.038430493 969:0.023055704 970:0.0073147663 971:0.0075652809 972:0.004145124 973:0.01880092 974:0.015708895 975:0.0075211511 976:0.0074277786 977:0.0064339112 978:0.0084396675 979:0.0063817287 980:0.011420813 981:0.010400756 982:0.008894382 983:0.012260403 984:0.0043078982 985:0.005995784 986:0.0056093163 987:0.0078041172 988:0.0035416528 989:0.010062078 990:0.010241736 991:0.0014222799 992:0.0024079136 993:0.0044561536 994:0.0036373404 995:0.0033759584 996:0.002809603 997:0.0015941159 998:0.0014542385 999:0.00084699172 1000:0.011013232 1001:0.026855865 1002:0.15629919 1003:0.027962236 1004:0.0029991458 1005:0.00097494898 1006:0.0019417838 1007:0.005524477 1008:0.0088359574 1009:0.0089270826 1010:0.0051708166 1011:0.014535826 1012:0.017131956 1013:0.028306358 1014:0.015964149 1015:0.011454366 1016:0.01321004 1017:0.0081493212 1018:0.0043321941 1019:0.0041659838 1020:0.0053344369 1021:0.0045429589 1022:0.0036477421 1023:0.0032017566 1024:0.002271502 1025:0.0020076814 1026:0.0033331574 1027:0.0049738991 1028:0.011872859 1029:0.05334311 1030:0.070705011 1031:0.050577767 1032:0.0082334206 1033:0.0070821764 1034:0.0048601408 1035:0.0027358118 1036:0.0031995163 1037:0.0041478933 1038:0.0055298968 1039:0.023158645 1040:0.051379107 1041:0.030824 1042:0.0097793741 1043:0.010114296 1044:0.0055417651 1045:0.0039044009 1046:0.0047662789 1047:0.0051602437 1048:0.006850007 1049:0.010256017 1050:0.012742178 1051:0.0070615564 1052:0.0039068321 1053:0.005938136 1054:0.0172785 1055:0.023817437 1056:0.008368656 1057:0.011647595 1058:0.01089683 1059:0.015160518 1060:0.0068801241 1061:0.019546904 1062:0.019895911 1063:0.0027629647 1064:0.0046776873 1065:0.008656662 1066:0.0070660096 1067:0.0065582409 1068:0.0054580215 1069:0.0030967786 1070:0.0028250485 1071:0.0016453923 1072:0.0024196487 1073:0.0030977926 1074:0.0045123682 1075:0.0098598571 1076:0.0076145027 1077:0.0066893511 1078:0.0033783948 1079:0.0014811524 1080:0.001051977 1081:0.017342025 1082:0.010044987 1083:0.028237743 1084:0.033281066 1085:0.054988801 1086:0.031012448 1087:0.022251604 1088:0.02566223 1089:0.015831122 1090:0.0084158536 1091:0.0080929687 1092:0.010362841 1093:0.0088252919 1094:0.007086216 1095:0.0062198313 1096:0.0044126902 1097:0.0039001836 1098:0.0064750942 1099:0.0021616109 1100:0.002142258 1101:0.0051464704 1102:0.0094652241 1103:0.010541004 1104:0.0060119294 1105:0.0023231134 1106:0.0026526758 1107:0.0017217059 1108:0.0062154792 1109:0.0080578253 1110:0.010742548 1111:0.044988696 1112:0.099810638 1113:0.059879653 1114:0.018997714 1115:0.019648343 1116:0.010765604 1117:0.0075848098 1118:0.0092591206 1119:0.010024449 1120:0.013307034 1121:0.019923653 1122:0.024753347 1123:0.013717997 1124:0.0075895321 1125:0.011535605 1126:0.0030226493 1127:0.0039806799 1128:0.0061341897 1129:0.0057132747 1130:0.0082692364 1131:0.0042201667 1132:0.0046137744 1133:0.0037288966 1134:0.0025470392 1135:0.0079580629 1136:0.0093978336 1137:0.016116232 1138:0.003733929 1139:0.0016939087 1140:0.0006429677 1141:0.0009887513 1142:0.00094060408 1143:0.0016667307 1144:0.010517405 1145:0.016141931 1146:0.03573098 1147:0.0094352858 1148:0.0035802766 1149:0.0031738165 1150:0.0043304372 1151:0.0048133559 1152:0.0081552193 1153:0.0085620945 1154:0.012190421 1155:0.016331876 1156:0.010364024 1157:0.0064626527 1158:0.0095444946 1159:0.0078682955 1160:0.015452904 1161:0.015587108 1162:0.0067875721 1163:0.0043823421 1164:0.030339748 1165:0.039138209 1166:0.038151413 1167:0.0075617149 1168:0.0028750168 1169:0.0014386884 1170:0.0031784677 1171:0.0055935532 1172:0.0016277392 1173:0.0295879 1174:0.068827808 1175:0.052555554 1176:0.007452257 1177:0.0028728333 1178:0.0020182128 1179:0.0024091932 1180:0.0042268457 1181:0.0039016134 1182:0.020129982 1183:0.05530386 1184:0.039575167 1185:0.0082154376 1186:0.0021570465 1187:0.0018100949 1188:0.00245015 1189:0.00085379428 1190:0.0019769408 1191:0.0020415923 1192:0.0071773841 1193:0.046291281 1194:0.012639411 1195:0.0014556253 1196:0.00098754407 1197:0.00054702989 1198:0.00100153 1199:0.00027849848 1200:0.00069334399 1201:0.016617145 1202:0.10085832 1203:0.0086345105 1204:0.00062841142 1205:0.00010623238 1206:0.00077344279 1207:0.000440342 1208:0.00053521188 1209:0.0024241959 1210:0.014801156 1211:0.080204174 1212:0.0083990954 1213:0.0019841129 1214:0.0011618688 1215:0.00053681125 1216:0.010727019 1217:0.016463641 1218:0.036443103 1219:0.0096233319 1220:0.003651632 1221:0.003237071 1222:0.0044167433 1223:0.0049092867 1224:0.0083177537 1225:0.008732738 1226:0.012433377 1227:0.016657371 1228:0.01057058 1229:0.0065914541 1230:0.0097347181 1231:0.0080251116 1232:0.015760882 1233:0.01589776 1234:0.0086140167 1235:0.007605528 1236:0.0060895723 1237:0.0071016848 1238:0.0078392094 1239:0.0082252817 1240:0.010880612 1241:0.0093649495 1242:0.013471333 1243:0.005705033 1244:0.0016601803 1245:0.030177591 1246:0.070199557 1247:0.05360299 1248:0.007600781 1249:0.0029300891 1250:0.0020584359 1251:0.0024572087 1252:0.0043110871 1253:0.0039793728 1254:0.020531176 1255:0.056406073 1256:0.040363904 1257:0.0083791725 1258:0.0022000365 1259:0.0018461704 1260:0.0024989818 1261:0.012208296 1262:0.0068976223 1263:0.0046788482 1264:0.0031338346 1265:0.0075605791 1266:0.0076710386 1267:0.0066641569 1268:0.0098114051 1269:0.018822247 1270:0.0010214907 1271:0.00028404899 1272:0.00070716243 1273:0.016948327 1274:0.10286845 1275:0.0088065974 1276:0.00064093573 1277:0.0001083496 1278:0.00078885758 1279:0.00044911809 1280:0.00054587872 1281:0.0024725103 1282:0.015096145 1283:0.081802659 1284:0.0085664904 1285:0.0020236566 1286:0.001185025 1287:0.00054750993 1288:0.015104987 1289:0.0081257783 1290:0.004095241 1291:0.0031224347 1292:0.010349303 1293:0.0083052358 1294:0.0063523673 1295:0.011468909 1296:0.012469912 1297:0.010820993 1298:0.015406565 1299:0.02064064 1300:0.013098317 1301:0.0081676655 1302:0.012062576 1303:0.009944153 1304:0.019529773 1305:0.019699384 1306:0.010673882 1307:0.0094242338 1308:0.0075457687 1309:0.0087999068 1310:0.009713796 1311:0.010192189 1312:0.013482487 1313:0.011604385 1314:0.016692726 1315:0.0089982385 1316:0.0062899827 1317:0.0052721687 1318:0.0034478847 1319:0.014545834 1320:0.0091149081 1321:0.0070517673 1322:0.0094379308 1323:0.018620281 1324:0.005341995 1325:0.0049309582 1326:0.025440786 1327:0.069894426 1328:0.050016105 1329:0.01038288 1330:0.0027261302 1331:0.0022876442 1332:0.0030965619 1333:0.01512766 1334:0.0085470472 1335:0.0057976986 1336:0.003883227 1337:0.0093685361 1338:0.0095054097 1339:0.0082577532 1340:0.012157601 1341:0.023323201 1342:0.0061073587 1343:0.0058820201 1344:0.0032976167 1345:0.0082494644 1346:0.0058930684 1347:0.013847367 1348:0.016601076 1349:0.022057779 1350:0.023742778 1351:0.00055651547 1352:0.00067641441 1353:0.0030637605 1354:0.018706078 1355:0.10136408 1356:0.010614991 1357:0.0025075725 1358:0.0014683994 1359:0.00067843572 1360:0.018717034 1361:0.010068892 1362:0.0050745341 1363:0.0038691009 1364:0.012824127 1365:0.010291263 1366:0.0078714062 1367:0.014211463 1368:0.015451835 1369:0.018679755 1370:0.0090956818 1371:0.0029049979 1372:0.0013058836 1373:0.0013137109 1374:0.0027170968 1375:0.0037703144 1376:0.010154681 1377:0.025997849 1378:0.012049795 1379:0.010639061 1380:0.0085184537 1381:0.0099342559 1382:0.010965949 1383:0.01150601 1384:0.015220442 1385:0.013100244 1386:0.018844496 1387:0.010158153 1388:0.0071007907 1389:0.0059517757 1390:0.003892333 1391:0.01642086 1392:0.010289862 1393:0.0079607731 1394:0.010654524 1395:0.021020522 1396:0.0094044097 1397:0.0099660726 1398:0.010601784 1399:0.014292761 1400:0.014750622 1401:0.013586653 1402:0.011726093 1403:0.020486493 1404:0.018700011 1405:0.017077684 1406:0.0096488008 1407:0.0065450491 1408:0.0043837931 1409:0.010576184 1410:0.010730701 1411:0.0093222158 1412:0.013724772 1413:0.02632967 1414:0.0068946257 1415:0.0066402396 1416:0.0037226949 1417:0.0093128588 1418:0.0066527124 1419:0.015632357 1420:0.018741032 1421:0.024901127 1422:0.026803333 1423:0.010213228 1424:0.0087498818 1425:0.01312277 1426:0.0067146504 1427:0.0071615921 1428:0.017798094 1429:0.028410595 1430:0.031874236 1431:0.017281484 1432:0.021129746 1433:0.011366818 1434:0.0057286648 1435:0.0043678461 1436:0.014477216 1437:0.011617854 1438:0.0088860663 1439:0.016043385 1440:0.017443649 1441:0.021087661 1442:0.010268157 1443:0.0032794657 1444:0.0014742181 1445:0.0014830542 1446:0.003067343 1447:0.0042563253 1448:0.011463667 1449:0.029349092 1450:0.0261482 1451:0.018889746 1452:0.0047837286 1453:0.0020604276 1454:0.00092866668 1455:0.0022348105 1456:0.0030457957 1457:0.013494735 1458:0.034912113 1459:0.0096090361 1460:0.0067169447 1461:0.0056300419 1462:0.0036819261 1463:0.015533201 1464:0.0097336257 1465:0.0075304392 1466:0.010078575 1467:0.019884219 1468:0.0088960379 1469:0.0094273398 1470:0.010028686 1471:0.013520141 1472:0.013953252 1473:0.012852203 1474:0.011092219 1475:0.019379059 1476:0.01768915 1477:0.010015768 1478:0.013879914 1479:0.012275775 1480:0.013953863 1481:0.012701986 1482:0.015109791 1483:0.01045895 1484:0.012333483 1485:0.016591525 1486:0.0065219244 1487:0.0062812897 1488:0.003521458 1489:0.0088094361 1490:0.0062930882 1491:0.014787322 1492:0.017727952 1493:0.023555053 1494:0.025354432 1495:0.0096611343 1496:0.008276891 1497:0.012413396 1498:0.0063516782 1499:0.00677446 1500:0.016835986 1501:0.026874809 1502:0.030151218 1503:0.016347304 1504:0.018992586 1505:0.0091438293 1506:0.0049618706 1507:0.0047757276 1508:0.0040063527 1509:0.0064999885 1510:0.013692023 1511:0.023218932 1512:0.04254533 1513:0.01994773 1514:0.0097130947 1515:0.0031021885 1516:0.0013945266 1517:0.0014028852 1518:0.0029015325 1519:0.0040262425 1520:0.010843978 1521:0.027762575 1522:0.024734713 1523:0.017868627 1524:0.0045251357 1525:0.0019490476 1526:0.00087846594 1527:0.0021140038 1528:0.0028811498 1529:0.012765253 1530:0.033024877 1531:0.045473024 1532:0.0097950073 1533:0.0027675198 1534:0.00092839595 1535:0.0017818364 1536:0.0010728494 1537:0.0015445622 1538:0.011542938 1539:0.04632346 1540:0.0085238284 1541:0.0090328995 1542:0.0096090864 1543:0.012954459 1544:0.013369448 1545:0.012314468 1546:0.01062812 1547:0.01856824 1548:0.016949037 1549:0.0095967092 1550:0.013299179 1551:0.011762157 1552:0.013370034 1553:0.012170536 1554:0.014477598 1555:0.010021348 1556:0.01181745 1557:0.015897335 1558:0.0066414354 1559:0.010992414 1560:0.011672126 1561:0.011437623 1562:0.0074647348 1563:0.015340026 1564:0.012621474 1565:0.015160644 1566:0.022272527 1567:0.0092569124 1568:0.0079305861 1569:0.011894019 1570:0.0060859243 1571:0.0064910166 1572:0.016131569 1573:0.025750369 1574:0.028889693 1575:0.015663333 1576:0.018197937 1577:0.0087612513 1578:0.0047542662 1579:0.0045759114 1580:0.003838727 1581:0.0062280293 1582:0.01311915 1583:0.022247452 1584:0.040765237 1585:0.03792074 1586:0.009601295 1587:0.0018120279 1588:0.0020493171 1589:0.001687892 1590:0.0020410425 1591:0.0063768611 1592:0.011387677 1593:0.035953112 1594:0.023699814 1595:0.017121004 1596:0.0043358044 1597:0.0018674996 1598:0.00084171095 1599:0.002025554 1600:0.0027606026 1601:0.012231155 1602:0.031643119 1603:0.043570433 1604:0.0093851844 1605:0.0026517271 1606:0.00088955188 1607:0.0017072844 1608:0.0010279614 1609:0.0014799377 1610:0.011059982 1611:0.044385288 1612:0.013491944 1613:0.015644111 1614:0.051975112 1615:0.0010579972 1616:0.00048846775 1617:0.00059730164 1618:0.0003966029 1619:0.0010203696 1620:0.0052665807 1621:0.0089656264 1622:0.012424621 1623:0.010988674 1624:0.012490816 1625:0.011370198 1626:0.013525547 1627:0.0093623409 1628:0.011040331 1629:0.014851922 1630:0.0062046926 1631:0.01026955 1632:0.010904564 1633:0.010685481 1634:0.0069738515 1635:0.014331262 1636:0.011791482 1637:0.014163676 1638:0.020807879 1639:0.013799203 1640:0.011689041 1641:0.0056861853 1642:0.0051121814 1643:0.0038053636 1644:0.0069353594 1645:0.0099736769 1646:0.012448915 1647:0.022369698 1648:0.017001236 1649:0.0081851091 1650:0.004441624 1651:0.0042749983 1652:0.0035862913 1653:0.0058184718 1654:0.01225643 1655:0.020784453 1656:0.038084503 1657:0.03542706 1658:0.0089699104 1659:0.0016928683 1660:0.0019145532 1661:0.0015768957 1662:0.0019068229 1663:0.0059575168 1664:0.01063882 1665:0.033588827 1666:0.028925892 1667:0.035867013 1668:0.0066331071 1669:0.0023224435 1670:0.0022037418 1671:0.0030421531 1672:0.0039246432 1673:0.0056042979 1674:0.02879723 1675:0.04070523 1676:0.0087680118 1677:0.0024773485 1678:0.0008310547 1679:0.0015950128 1680:0.00096036238 1681:0.0013826166 1682:0.010332674 1683:0.041466501 1684:0.01260471 1685:0.014615349 1686:0.048557211 1687:0.00098842301 1688:0.00045634597 1689:0.00055802288 1690:0.00037052218 1691:0.00095326971 1692:0.0049202489 1693:0.0017108016 1694:0.020278893 1695:0.092708491 1696:0.021457821 1697:0.023162754 1698:0.0059493482 1699:0.0016069362 1700:0.00067570806 1701:0.0035058856 1702:0.0067940336 1703:0.011244983 1704:0.011940314 1705:0.011700423 1706:0.00763625 1707:0.015692491 1708:0.012911474 1709:0.015508987 1710:0.022784278 1711:0.015109894 1712:0.012799303 1713:0.0062262774 1714:0.0055977525 1715:0.0041668089 1716:0.0075941016 1717:0.010921008 1718:0.013631352 1719:0.024494443 1720:0.013413726 1721:0.0019014981 1722:0.0030692897 1723:0.0022553548 1724:0.0038957221 1725:0.00573075 1726:0.010522061 1727:0.017644344 1728:0.026500851 1729:0.038792033 1730:0.0098219011 1731:0.0018536623 1732:0.0020964036 1733:0.0017266743 1734:0.0020879391 1735:0.0065233805 1736:0.011649328 1737:0.036779199 1738:0.031673364 1739:0.039273776 1740:0.0072631408 1741:0.0025430364 1742:0.0024130601 1743:0.0033311064 1744:0.0042974185 1745:0.0061366116 1746:0.031532481 1747:0.018394941 1748:0.0095946966 1749:0.0051086005 1750:0.0048954235 1751:0.0054072905 1752:0.0085173547 1753:0.0050299629 1754:0.014060409 1755:0.023258366 1756:0.013801944 1757:0.01600356 1758:0.053169329 1759:0.0010823065 1760:0.00049969117 1761:0.00061102567 1762:0.00040571555 1763:0.0010438142 1764:0.0053875898 1765:0.001873299 1766:0.022205047 1767:0.10151424 1768:0.023495952 1769:0.025362827 1770:0.0065144361 1771:0.0017595681 1772:0.00073988893 1773:0.0038388856 1774:0.014830898 1775:0.0073362314 1776:0.0093555767 1777:0.0076369639 1778:0.011612915 1779:0.0065186792 1780:0.008603191 1781:0.0066164914 1782:0.012428922 1783:0.017529324 1784:0.014848756 1785:0.0072232429 1786:0.0064940769 1787:0.0048340079 1788:0.0088100862 1789:0.012669704 1790:0.015814034 1791:0.028416548 1792:0.015561562 1793:0.00220597 1794:0.0035607512 1795:0.0026164872 1796:0.0045195138 1797:0.0066483705 1798:0.012206877 1799:0.020469595 1800:0.030744227 1801:0.030344468 1802:0.0082697915 1803:0.0027981224 1804:0.0015828537 1805:0.0019016992 1806:0.0021317683 1807:0.0047916388 1808:0.015803253 1809:0.043934707 1810:0.036744975 1811:0.045562379 1812:0.0084261307 1813:0.0029502332 1814:0.0027994446 1815:0.0038644907 1816:0.0049855304 1817:0.0071192198 1818:0.036581531 1819:0.021340379 1820:0.01113102 1821:0.0059266007 1822:0.0056792898 1823:0.0062731178 1824:0.0098811723 1825:0.005835372 1826:0.016311793 1827:0.026982548 1828:0.029606484 1829:0.012345438 1830:0.01222387 1831:0.0038698078 1832:0.0020544503 1833:0.00096505607 1834:0.0013959011 1835:0.0022119104 1836:0.0077310749 1837:0.0021732557 1838:0.025760569 1839:0.11776892 1840:0.027258176 1841:0.029423978 1842:0.0075575425 1843:0.002041314 1844:0.00085836154 1845:0.0044535766 1846:0.017205656 1847:0.0085109249 1848:0.010853612 1849:0.0088598114 1850:0.013472402 1851:0.0075624646 1852:0.0099807531 1853:0.0076759388 1854:0.014419068 1855:0.0027737692 1856:0.0023615719 1857:0.0041206391 1858:0.0060855933 1859:0.0041431743 1860:0.0021496469 1861:0.0024748524 1862:0.0009715184 1863:0.0015499855 1864:0.020425061 1865:0.0028954083 1866:0.004673603 1867:0.0034342257 1868:0.0059320102 1869:0.0087262047 1870:0.016021926 1871:0.026867017 1872:0.040352806 1873:0.039828114 1874:0.010854374 1875:0.0036726275 1876:0.0020775476 1877:0.0024960428 1878:0.002798016 1879:0.0062891836 1880:0.020742288 1881:0.057665747 1882:0.038896389 1883:0.051209383 1884:0.070984848 1885:0.010541243 1886:0.0022378224 1887:0.0008570553 1888:0.0019650972 1889:0.0054309489 1890:0.004235927 1891:0.028009951 1892:0.01460983 1893:0.0077788583 1894:0.0074542542 1895:0.0082336739 1896:0.012969363 1897:0.0076591177 1898:0.021409763 1899:0.035415482 1900:0.038859483 1901:0.016203793 1902:0.016044233 1903:0.0050792499 1904:0.0026965337 1905:0.0012666677 1906:0.0018321661 1907:0.0029032051 1908:0.01014729 1909:0.0046678358 1910:0.015229451 1911:0.04250747 1912:0.017343692 1913:0.0070728976 1914:0.0061178403 1915:0.0076279733 1916:0.002336106 1917:0.0023472507 1918:0.022582987 1919:0.01117087 1920:0.014245722 1921:0.011628794 1922:0.01768297 1923:0.0099259838 1924:0.013100067 1925:0.010074922 1926:0.018925501 1927:0.0036406633 1928:0.0030996408 1929:0.0054084742 1930:0.0079875411 1931:0.0054380526 1932:0.002821482 1933:0.0032483251 1934:0.0012751499 1935:0.0020344069 1936:0.0029392301 1937:0.0035800086 1938:0.0056017092 1939:0.0044143363 1940:0.0031452819 1941:0.0039320453 1942:0.0016330589 1943:0.0020061464 1944:0.0025183754 1945:0.036212843 1946:0.0098691024 1947:0.0033392564 1948:0.0018889647 1949:0.0022694722 1950:0.002544035 1951:0.0057183024 1952:0.018859472 1953:0.052431319 1954:0.035365693 1955:0.04656101 1956:0.064541422 1957:0.0095843952 1958:0.0020346912 1959:0.00077925884 1960:0.0017867216 1961:0.0049379719 1962:0.0038514242 1963:0.010017975 1964:0.024428923 1965:0.14217456 1966:0.02543531 1967:0.0027281153 1968:0.00088684366 1969:0.0017663063 1970:0.0050252345 1971:0.0080374582 1972:0.035332136 1973:0.014732946 1974:0.014587868 1975:0.0046181972 1976:0.0024517644 1977:0.00115169 1978:0.001665857 1979:0.0026396757 1980:0.009226202 1981:0.0042441273 1982:0.013847047 1983:0.038648989 1984:0.015769374 1985:0.0064308774 1986:0.0055625127 1987:0.0069355681 1988:0.0021240534 1989:0.0021341864 1990:0.0045244116 1991:0.010799917 1992:0.048522536 1993:0.064315461 1994:0.046007093 1995:0.007489373 1996:0.0064421655 1997:0.0044209338 1998:0.0024885787 1999:0.0033101935 2000:0.0028182806 2001:0.0049175373 2002:0.0072624972 2003:0.0049444302 2004:0.0025653709 2005:0.0029534686 2006:0.0011594021 2007:0.00184974 2008:0.0026724308 2009:0.0032550446 2010:0.0050932318 2011:0.0040136385 2012:0.0028597789 2013:0.0035751264 2014:0.0014848231 2015:0.0018240446 2016:0.0022897779 2017:0.0018735583 2018:0.0031450773 2019:0.0037185119 2020:0.0065270201 2021:0.0089853266 2022:0.0049344981 2023:0.0050812508 2024:0.0033953565 2025:0.003297728 2026:0.033174533 2027:0.043676224 2028:0.060542617 2029:0.0089905728 2030:0.0019086273 2031:0.00073097815 2032:0.0016760214 2033:0.0046320288 2034:0.0036128007 2035:0.0093972897 2036:0.022915376 2037:0.13336582 2038:0.02385941 2039:0.0025590891 2040:0.00083189731 2041:0.0016568711 2042:0.004713885 2043:0.0075394805 2044:0.0076172356 2045:0.0044121165 2046:0.012403022 2047:0.014618229 2048:0.024153041 2049:0.013621772 2050:0.0097736968 2051:0.011271765 2052:0.0069535924 2053:0.0039811735 2054:0.012989122 2055:0.036254406 2056:0.014792347 2057:0.0060324385 2058:0.0052178749 2059:0.00650586 2060:0.0019924529 2061:0.0020019582 2062:0.0042440919 2063:0.010130785 2064:0.045516215 2065:0.060330655 2066:0.043156624 2067:0.0070253527 2068:0.0060430272 2069:0.0041470253 2070:0.0023343933 2071:0.0027300599 2072:0.003539284 2073:0.0047185095 2074:0.019760638 2075:0.043840386 2076:0.026301276 2077:0.0083444724 2078:0.0086302524 2079:0.0047286367 2080:0.0025068545 2081:0.0030533711 2082:0.0047776694 2083:0.0037649649 2084:0.002682595 2085:0.0033536218 2086:0.0013928277 2087:0.001711032 2088:0.0021479097 2089:0.0017574779 2090:0.0029502171 2091:0.0034881234 2092:0.006122624 2093:0.0084286211 2094:0.0046287705 2095:0.0047664307 2096:0.0031849898 2097:0.0030934101 2098:0.0031730116 2099:0.0045676115 2100:0.0050976318 2101:0.015724273 2102:0.02165007 2103:0.0095804064 2104:0.0039146668 2105:0.0037085363 2106:0.0028721192 2107:0.010950903 2108:0.026703876 2109:0.15541463 2110:0.027803984 2111:0.0029821722 2112:0.0009694313 2113:0.0019307944 2114:0.0054932116 2115:0.00878595 2116:0.0088765603 2117:0.0051415525 2118:0.014453561 2119:0.017034998 2120:0.028146159 2121:0.015873801 2122:0.011389541 2123:0.013135279 2124:0.0081032002 2125:0.0043076761 2126:0.0041424069 2127:0.0053042467 2128:0.0045172484 2129:0.0036270979 2130:0.0031836363 2131:0.0022586465 2132:0.001996319 2133:0.0033142935 2134:0.0049457494 2135:0.011805665 2136:0.053041216 2137:0.070304863 2138:0.050291523 2139:0.0081868237 2140:0.0070420951 2141:0.0048326352 2142:0.0027203285 2143:0.0031814089 2144:0.0041244188 2145:0.0054986007 2146:0.02302758 2147:0.051088329 2148:0.030649554 2149:0.0097240284 2150:0.010057054 2151:0.0055104019 2152:0.0038823041 2153:0.0047393045 2154:0.0051310398 2155:0.0068112398 2156:0.010197973 2157:0.012670063 2158:0.0070215915 2159:0.0038847213 2160:0.0059045292 2161:0.0020480342 2162:0.003437964 2163:0.0040647998 2164:0.0071348515 2165:0.0098220892 2166:0.0053940252 2167:0.0055544442 2168:0.0037115505 2169:0.0036048302 2170:0.0036975921 2171:0.0053227548 2172:0.0059404015 2173:0.0183239 2174:0.025229385 2175:0.011164295 2176:0.004561862 2177:0.0043216529 2178:0.0033469542 2179:0.0034824407 2180:0.0036386277 2181:0.0044247215 2182:0.013742227 2183:0.015462943 2184:0.011769477 2185:0.0037659516 2186:0.0030643404 2187:0.0018478103 2188:0.015481643 2189:0.0089674015 2190:0.025208512 2191:0.029710805 2192:0.049089823 2193:0.027685557 2194:0.019864542 2195:0.022909289 2196:0.014132823 2197:0.0075130342 2198:0.0072247875 2199:0.0092511578 2200:0.0078785503 2201:0.0063260351 2202:0.0055525927 2203:0.0039393143 2204:0.0034817876 2205:0.0057804724 2206:0.0019297219 2207:0.0019124453 2208:0.0045943777 2209:0.0084498329 2210:0.0094102072 2211:0.0053669936 2212:0.0020738991 2213:0.0023681074 2214:0.0015370082 2215:0.0055487077 2216:0.0071934145 2217:0.0095901303 2218:0.040162489 2219:0.089103356 2220:0.053456005 2221:0.016959716 2222:0.017540548 2223:0.0096107135 2224:0.0067711417 2225:0.008265839 2226:0.0089490656 2227:0.011879509 2228:0.017786324 2229:0.022097906 2230:0.012246385 2231:0.0067753578 2232:0.010298112 2233:0.0026983917 2234:0.0035536485 2235:0.0054761386 2236:0.0051003774 2237:0.0073821461 2238:0.0037674441 2239:0.0041188272 2240:0.0033288756 2241:0.0022738029 2242:0.0064489846 2243:0.0092834374 2244:0.010360677 2245:0.031958785 2246:0.044002667 2247:0.019471688 2248:0.0079563614 2249:0.0075374111 2250:0.0058374358 2251:0.006073738 2252:0.0063461447 2253:0.007717174 2254:0.023967871 2255:0.026968978 2256:0.020527191 2257:0.0065682107 2258:0.0053445278 2259:0.0032227731 2260:0.0056545185 2261:0.0067784162 2262:0.011673075 2263:0.0071141496 2264:0.0042757783 2265:0.0023467233 2266:0.003189605 2267:0.0055993227 2268:0.0041875127 2269:0.0072465423 2270:0.0046786731 2271:0.032391299 2272:0.041784707 2273:0.040731184 2274:0.0080730328 2275:0.0030694234 2276:0.0015359714 2277:0.0033933932 2278:0.0059717852 2279:0.0017378058 2280:0.031588614 2281:0.073481895 2282:0.05610932 2283:0.0079561733 2284:0.003067092 2285:0.0021546828 2286:0.0025721011 2287:0.0045126616 2288:0.0041654375 2289:0.021491159 2290:0.059043467 2291:0.042251211 2292:0.0087709595 2293:0.0023029044 2294:0.0019324922 2295:0.0026158274 2296:0.00091152726 2297:0.0021106203 2298:0.0021796431 2299:0.0076627135 2300:0.049421463 2301:0.013494079 2302:0.0015540536 2303:0.0010543211 2304:0.00058401964 2305:0.0010692527 2306:0.00029733035 2307:0.00074022741 2308:0.017740786 2309:0.10767829 2310:0.0092183696 2311:0.00067090412 2312:0.00011341574 2313:0.00082574238 2314:0.00047011761 2315:0.00057140255 2316:0.0025881182 2317:0.015802 2318:0.085627526 2319:0.0089670364 2320:0.0021182771 2321:0.0012404335 2322:0.00057311001 2323:0.0024307997 2324:0.0013905627 2325:0.002089069 2326:0.0062051923 2327:0.017206417 2328:0.0062793833 2329:0.0025202781 2330:0.0020328183 2331:0.0018668604 2332:0.003695078 2333:0.0014413712 2334:0.0022863604 2335:0.0088406429 2336:0.043327227 2337:0.016911611 2338:0.0029119034 2339:0.0024753616 2340:0.0013747171 2341:0.0060778414 2342:0.0033982422 2343:0.0018064824 2344:0.0045476728 2345:0.014405143 2346:0.017158816 2347:0.0074296799 2348:0.0058656451 2349:0.0041091326 2350:0.0064569302 2351:0.0018789843 2352:0.034154858 2353:0.079451531 2354:0.060667615 2355:0.0086025288 2356:0.0033162613 2357:0.0023297283 2358:0.0027810573 2359:0.0048792684 2360:0.0045038359 2361:0.023237091 2362:0.063840128 2363:0.045683678 2364:0.0094835088 2365:0.0024899913 2366:0.0020894872 2367:0.0028283359 2368:0.013817294 2369:0.0078066969 2370:0.0052954988 2371:0.0035468596 2372:0.0085570281 2373:0.0086820461 2374:0.0075424621 2375:0.011104503 2376:0.021302933 2377:0.0011561183 2378:0.00032148534 2379:0.00080036314 2380:0.019182039 2381:0.11642603 2382:0.0099672657 2383:0.00072540808 2384:0.00012262957 2385:0.00089282537 2386:0.00050830975 2387:0.00061782304 2388:0.0027983759 2389:0.017085746 2390:0.092583865 2391:0.0096955141 2392:0.0022903651 2393:0.0013412058 2394:0.00061966921 2395:0.017095754 2396:0.0091967182 2397:0.004634975 2398:0.0035339571 2399:0.011713292 2400:0.0093998276 2401:0.0071895802 2402:0.012980457 2403:0.014113388 2404:0.0039952644 2405:0.0015584675 2406:0.0024721031 2407:0.0095588528 2408:0.046847112 2409:0.018285502 2410:0.0031484652 2411:0.0026764588 2412:0.0014863984 2413:0.0065716025 2414:0.0036743137 2415:0.0019532403 2416:0.0049171238 2417:0.01557541 2418:0.018552791 2419:0.0080332635 2420:0.0063421675 2421:0.0044429568 2422:0.0049170321 2423:0.0030588268 2424:0.00222167 2425:0.0016608866 2426:0.0032146659 2427:0.0033309283 2428:0.0025618235 2429:0.0019348453 2430:0.0036834152 2431:0.0065700603 2432:0.0060645305 2433:0.031289339 2434:0.085962377 2435:0.061514247 2436:0.012769788 2437:0.0033528372 2438:0.0028135478 2439:0.0038084269 2440:0.01860534 2441:0.010511918 2442:0.0071305251 2443:0.0047759372 2444:0.011522258 2445:0.011690597 2446:0.010156118 2447:0.014952498 2448:0.028684944 2449:0.0075113722 2450:0.0072342306 2451:0.0040557021 2452:0.010145924 2453:0.0072478186 2454:0.017030722 2455:0.020417478 2456:0.027128614 2457:0.029200977 2458:0.00068445213 2459:0.00083191454 2460:0.0037680848 2461:0.023006396 2462:0.12466655 2463:0.013055258 2464:0.0030840354 2465:0.001805968 2466:0.00083440053 2467:0.023019871 2468:0.012383617 2469:0.0062411125 2470:0.0047585638 2471:0.01577225 2472:0.012657109 2473:0.0096809538 2474:0.017478518 2475:0.019004039 2476:0.02297402 2477:0.011186678 2478:0.0035728244 2479:0.0016060916 2480:0.0016157184 2481:0.003341727 2482:0.0046370677 2483:0.012489129 2484:0.031974465 2485:0.0088488311 2486:0.0049475576 2487:0.002630088 2488:0.0066210334 2489:0.02097269 2490:0.024981808 2491:0.010816996 2492:0.0085398909 2493:0.0059825554 2494:0.00662091 2495:0.004118789 2496:0.0029915357 2497:0.0022364263 2498:0.0043286299 2499:0.0044851801 2500:0.0034495611 2501:0.002605319 2502:0.0049598133 2503:0.0013674019 2504:0.0021253319 2505:0.0043981806 2506:0.003205833 2507:0.0047116694 2508:0.0030541739 2509:0.0011364982 2510:0.00070034817 2511:0.00088168622 2512:0.022169506 2513:0.012525653 2514:0.0084964968 2515:0.0056908489 2516:0.013729541 2517:0.013930129 2518:0.012101694 2519:0.017816901 2520:0.03418003 2521:0.0089503024 2522:0.0086200694 2523:0.0048326398 2524:0.012089547 2525:0.0086362604 2526:0.020293243 2527:0.024328791 2528:0.032325558 2529:0.034794919 2530:0.013258367 2531:0.011358715 2532:0.017035408 2533:0.0087166671 2534:0.0092968671 2535:0.023104709 2536:0.036881395 2537:0.041377746 2538:0.022434069 2539:0.027429715 2540:0.014755907 2541:0.007436703 2542:0.005670147 2543:0.018793689 2544:0.015081792 2545:0.011535504 2546:0.020826824 2547:0.022644583 2548:0.027375082 2549:0.013329674 2550:0.0042572594 2551:0.0019137656 2552:0.0019252364 2553:0.0039818911 2554:0.0055253762 2555:0.014881633 2556:0.03809971 2557:0.033944454 2558:0.024521844 2559:0.0062100277 2560:0.0026747573 2561:0.0012055546 2562:0.0029011336 2563:0.0039539193 2564:0.017518276 2565:0.045321383 2566:0.0078892568 2567:0.0049078125 2568:0.0035646148 2569:0.0026648515 2570:0.0051578521 2571:0.0053443923 2572:0.0041103824 2573:0.0031044118 2574:0.0059099491 2575:0.0016293508 2576:0.0025324752 2577:0.0052407268 2578:0.0038199646 2579:0.0056142691 2580:0.0036392524 2581:0.0013542136 2582:0.00083451165 2583:0.0010505881 2584:0.0034896182 2585:0.021380898 2586:0.023097692 2587:0.0037993621 2588:0.003991378 2589:0.001888725 2590:0.00016947104 2591:0.00059944909 2592:0.0005193149 2593:0.0082633384 2594:0.0079584522 2595:0.0044617197 2596:0.011161637 2597:0.0079734009 2598:0.018735673 2599:0.022461481 2600:0.02984447 2601:0.0321243 2602:0.012240746 2603:0.010486898 2604:0.015727887 2605:0.0080476357 2606:0.0085833035 2607:0.021331349 2608:0.034050632 2609:0.038201872 2610:0.020712184 2611:0.024063783 2612:0.011585316 2613:0.0062867361 2614:0.0060508912 2615:0.0050760861 2616:0.0082355449 2617:0.017347921 2618:0.029418601 2619:0.053905327 2620:0.025273958 2621:0.01230658 2622:0.0039305012 2623:0.0017668781 2624:0.0017774685 2625:0.0036762685 2626:0.0051012863 2627:0.013739421 2628:0.035175439 2629:0.031339109 2630:0.022639716 2631:0.0057333889 2632:0.0024694614 2633:0.0011130244 2634:0.0026784625 2635:0.0036504434 2636:0.016173692 2637:0.041842826 2638:0.05761474 2639:0.012410364 2640:0.0035064733 2641:0.0011762863 2642:0.0022576032 2643:0.0013593101 2644:0.0019569744 2645:0.014625009 2646:0.058692254 2647:0.0015042931 2648:0.0023380998 2649:0.0048384843 2650:0.0035267703 2651:0.0051833563 2652:0.0033599285 2653:0.0012502734 2654:0.00077046029 2655:0.00096995221 2656:0.0032217791 2657:0.019739848 2658:0.021324873 2659:0.0035077492 2660:0.0036850274 2661:0.0017437595 2662:0.0001564636 2663:0.00055343949 2664:0.00047945586 2665:0.0059764097 2666:0.018981801 2667:0.022072269 2668:0.0077338326 2669:0.0036486562 2670:0.0021011508 2671:0.00095768215 2672:0.0011920511 2673:0.00085519039 2674:0.011862778 2675:0.010163086 2676:0.015242244 2677:0.007799142 2678:0.0083182696 2679:0.020672685 2680:0.032999221 2681:0.037022281 2682:0.020072637 2683:0.023320746 2684:0.011227586 2685:0.0060926154 2686:0.005864053 2687:0.0049193474 2688:0.0079812501 2689:0.016812256 2690:0.028510218 2691:0.052240849 2692:0.048595615 2693:0.012304106 2694:0.0023221227 2695:0.0026262098 2696:0.0021630418 2697:0.0026156059 2698:0.0081719793 2699:0.014593364 2700:0.046074092 2701:0.030371428 2702:0.02194065 2703:0.0055563543 2704:0.0023932098 2705:0.0010786568 2706:0.0025957574 2707:0.0035377259 2708:0.015674286 2709:0.040550809 2710:0.055835724 2711:0.012027159 2712:0.003398201 2713:0.0011399651 2714:0.0021878933 2715:0.0013173376 2716:0.0018965474 2717:0.014173421 2718:0.056879964 2719:0.017289992 2720:0.020048004 2721:0.066606358 2722:0.0013558286 2723:0.00062597386 2724:0.00076544494 2725:0.00050824857 2726:0.0013076086 2727:0.0067491489 2728:0.0031222976 2729:0.019130323 2730:0.020666407 2731:0.0033994378 2732:0.0035712419 2733:0.001689916 2734:0.00015163235 2735:0.00053635048 2736:0.00046465133 2737:0.0057918713 2738:0.018395685 2739:0.021390725 2740:0.0074950289 2741:0.0035359939 2742:0.0020362718 2743:0.00092811103 2744:0.0011552433 2745:0.00082878402 2746:0.0037047146 2747:0.0066966414 2748:0.009833836 2749:0.0076712389 2750:0.0036963804 2751:0.0013430123 2752:0.0018190162 2753:0.0015399341 2754:0.0010035047 2755:0.020014653 2756:0.0096358946 2757:0.0052288882 2758:0.0050327284 2759:0.0042219502 2760:0.0068497784 2761:0.014428846 2762:0.024468433 2763:0.044834863 2764:0.041706398 2765:0.010559799 2766:0.0019929241 2767:0.0022539019 2768:0.0018563956 2769:0.0022448015 2770:0.0070134685 2771:0.012524518 2772:0.039542343 2773:0.034052916 2774:0.042224333 2775:0.007808805 2776:0.0027340895 2777:0.0025943483 2778:0.0035813656 2779:0.0046202745 2780:0.0065976423 2781:0.033901449 2782:0.047920104 2783:0.010322114 2784:0.0029164511 2785:0.00097835658 2786:0.001877724 2787:0.0011305836 2788:0.0016276811 2789:0.012164108 2790:0.048816308 2791:0.014838856 2792:0.017205874 2793:0.057163827 2794:0.0011636179 2795:0.00053723191 2796:0.00065693073 2797:0.0004361961 2798:0.0011222338 2799:0.0057923477 2800:0.0020140361 2801:0.023873264 2802:0.10914079 2803:0.025261154 2804:0.027268281 2805:0.0070038522 2806:0.0018917607 2807:0.00079547521 2808:0.0041272929 2809:0.0049707796 2810:0.015787797 2811:0.018358244 2812:0.0064324872 2813:0.0030347095 2814:0.0017475974 2815:0.00079653622 2816:0.00099146878 2817:0.00071129046 2818:0.0031795113 2819:0.0057472843 2820:0.0084397299 2821:0.0065837167 2822:0.0031723585 2823:0.0011526186 2824:0.0015611412 2825:0.0013216235 2826:0.00086124166 2827:0.0045910846 2828:0.0037726031 2829:0.011493598 2830:0.01398883 2831:0.039054621 2832:0.012431159 2833:0.0041637523 2834:0.0027937912 2835:0.0022862153 2836:0.044576984 2837:0.011286614 2838:0.002130094 2839:0.0024090344 2840:0.0019841683 2841:0.0023993077 2842:0.0074961944 2843:0.013386561 2844:0.042263977 2845:0.036396727 2846:0.045130566 2847:0.0083462726 2848:0.0029222725 2849:0.0027729131 2850:0.0038278652 2851:0.0049382807 2852:0.0070517478 2853:0.036234833 2854:0.021138128 2855:0.011025527 2856:0.0058704321 2857:0.0056254645 2858:0.006213665 2859:0.0097875241 2860:0.0057800678 2861:0.016157199 2862:0.026726823 2863:0.015860191 2864:0.018390127 2865:0.061098326 2866:0.001243708 2867:0.00057420874 2868:0.00070214627 2869:0.0004662188 2870:0.0011994755 2871:0.006191026 2872:0.002152659 2873:0.025516424 2874:0.11665278 2875:0.026999839 2876:0.029145114 2877:0.0074859164 2878:0.0020219677 2879:0.0008502265 2880:0.0044113682 2881:0.01704259 2882:0.008430264 2883:0.010750748 2884:0.0087758433 2885:0.013344717 2886:0.0074907923 2887:0.0098861614 2888:0.0076031904 2889:0.014282412 2890:0.0033983521 2891:0.0061428607 2892:0.0090206238 2893:0.0070368634 2894:0.0033907071 2895:0.0012319514 2896:0.0016685921 2897:0.0014125888 2898:0.00092051958 2899:0.0049070818 2900:0.0040322654 2901:0.012284684 2902:0.014951659 2903:0.04174269 2904:0.013286776 2905:0.0044503366 2906:0.0029860835 2907:0.002443572 2908:0.0057314895 2909:0.005846241 2910:0.0099932887 2911:0.0066909767 2912:0.01975245 2913:0.0084061362 2914:0.002105627 2915:0.0015400995 2916:0.0021755788 2917:0.042484216 2918:0.052678823 2919:0.009742219 2920:0.0034110337 2921:0.0032366933 2922:0.0044680904 2923:0.0057642269 2924:0.0082311798 2925:0.042295247 2926:0.024673561 2927:0.012869588 2928:0.0068522841 2929:0.0065663452 2930:0.0072529241 2931:0.011424526 2932:0.0067468062 2933:0.018859552 2934:0.031196985 2935:0.034230758 2936:0.014273688 2937:0.014133133 2938:0.004474238 2939:0.0023753375 2940:0.0011157894 2941:0.0016139287 2942:0.0025573915 2943:0.0089386012 2944:0.0025126992 2945:0.029784143 2946:0.1361634 2947:0.031515665 2948:0.034019746 2949:0.0087379646 2950:0.0023601495 2951:0.00099243014 2952:0.0051491861 2953:0.019893028 2954:0.0098402575 2955:0.012548852 2956:0.010243637 2957:0.015576673 2958:0.0087436559 2959:0.011539659 2960:0.0088748531 2961:0.016671199 2962:0.0032070079 2963:0.0027304289 2964:0.0047642472 2965:0.0070361095 2966:0.0047903019 2967:0.0024854029 2968:0.0028614027 2969:0.0011232611 2970:0.0017920798 2971:0.0057278099 2972:0.0047066775 2973:0.014339345 2974:0.017452382 2975:0.048724312 2976:0.015509039 2977:0.0051946724 2978:0.0034855173 2979:0.0028522687 2980:0.0066901031 2981:0.0068240468 2982:0.011664704 2983:0.0078100679 2984:0.023056122 2985:0.0098120943 2986:0.002457801 2987:0.001797687 2988:0.0025394526 2989:0.0033595534 2990:0.002234681 2991:0.0058487616 2992:0.0042821593 2993:0.0046748528 2994:0.0048971898 2995:0.0028263668 2996:0.0011811123 2997:0.0016235723 2998:0.041088872 2999:0.02143172 3000:0.011411105 3001:0.010934932 3002:0.012078292 3003:0.019025257 3004:0.011235453 3005:0.031406805 3006:0.051952329 3007:0.057004467 3008:0.023769965 3009:0.0235359 3010:0.0074509466 3011:0.0039556487 3012:0.0018581236 3013:0.0026876747 3014:0.0042588231 3015:0.014885449 3016:0.0068474272 3017:0.022340667 3018:0.062355839 3019:0.025442127 3020:0.010375504 3021:0.0089744944 3022:0.011189766 3023:0.0034269234 3024:0.0034432719 3025:0.033127852 3026:0.016386976 3027:0.020897597 3028:0.017058725 3029:0.025939826 3030:0.014560806 3031:0.01921699 3032:0.014779289 3033:0.027762542 3034:0.0053406288 3035:0.0045469818 3036:0.0079338988 3037:0.01171723 3038:0.0079772873 3039:0.00413894 3040:0.0047650924 3041:0.0018705662 3042:0.0029843496 3043:0.0043116692 3044:0.0052516516 3045:0.0082173618 3046:0.006475559 3047:0.004613935 3048:0.0057680681 3049:0.0023955968 3050:0.002942893 3051:0.0036943015 3052:0.011141026 3053:0.011364083 3054:0.019425226 3055:0.013006103 3056:0.038395349 3057:0.016340077 3058:0.0040929751 3059:0.0029936873 3060:0.0042289495 3061:0.0055946629 3062:0.0037214132 3063:0.009739941 3064:0.0071310778 3065:0.0077850306 3066:0.0081552882 3067:0.0047067474 3068:0.0019669058 3069:0.0027037342 3070:0.0045435033 3071:0.0040529552 3072:0.0046311165 3073:0.0069178329 3074:0.0057219346 3075:0.0044735586 3076:0.0021863668 3077:0.0015439044 3078:0.0043837428 3079:0.063184135 3080:0.026346792 3081:0.026087351 3082:0.0082586799 3083:0.0043844678 3084:0.0020595568 3085:0.0029790369 3086:0.0047205081 3087:0.016499132 3088:0.0075897346 3089:0.024762547 3090:0.069115631 3091:0.028200226 3092:0.011500279 3093:0.0099473903 3094:0.012402813 3095:0.0037984252 3096:0.0038165459 3097:0.0080909645 3098:0.019313395 3099:0.086772405 3100:0.11501475 3101:0.082274064 3102:0.013393178 3103:0.011520466 3104:0.0079059154 3105:0.0044503021 3106:0.0059195892 3107:0.0050399057 3108:0.0087939864 3109:0.012987457 3110:0.0088420799 3111:0.0045876293 3112:0.0052816607 3113:0.0020733483 3114:0.0033078734 3115:0.0047790837 3116:0.0058209663 3117:0.0091081792 3118:0.0071775531 3119:0.0051141167 3120:0.006393366 3121:0.0026552957 3122:0.0032619224 3123:0.0040947888 3124:0.003350467 3125:0.0056243129 3126:0.006649781 3127:0.01167221 3128:0.016068378 3129:0.0088243177 3130:0.0090867542 3131:0.0060718847 3132:0.0058972966 3133:0.006201162 3134:0.0041248398 3135:0.010795816 3136:0.0079041347 3137:0.0086289803 3138:0.0090393769 3139:0.0052169906 3140:0.0021801316 3141:0.0029968373 3142:0.00503605 3143:0.0044923229 3144:0.0051331609 3145:0.0076677729 3146:0.0063422313 3147:0.004958523 3148:0.0024233838 3149:0.0017112741 3150:0.0048589702 3151:0.005294235 3152:0.0029141256 3153:0.007319585 3154:0.0063096718 3155:0.0092966938 3156:0.0072518438 3157:0.0035969417 3158:0.0031709829 3159:0.0022507343 3160:0.0066316002 3161:0.021636503 3162:0.06039042 3163:0.024640206 3164:0.010048475 3165:0.0086916238 3166:0.010837073 3167:0.0033189091 3168:0.003334742 3169:0.0070695546 3170:0.016875256 3171:0.075818188 3172:0.1004952 3173:0.071887724 3174:0.011702412 3175:0.010066113 3176:0.0069078663 3177:0.0038884927 3178:0.0045475704 3179:0.0058955275 3180:0.0078598112 3181:0.032916088 3182:0.073026694 3183:0.043811094 3184:0.013899723 3185:0.014375757 3186:0.0078766802 3187:0.0041757682 3188:0.005086123 3189:0.0079583563 3190:0.0062714531 3191:0.0044685062 3192:0.0055862623 3193:0.0023200889 3194:0.0028501349 3195:0.0035778594 3196:0.0029275015 3197:0.0049142954 3198:0.0058103073 3199:0.010198701 3200:0.014039894 3201:0.0077103293 3202:0.0079396348 3203:0.0053053652 3204:0.0051528173 3205:0.005285413 3206:0.0076084537 3207:0.0084913298 3208:0.026192553 3209:0.036063392 3210:0.015958469 3211:0.006520818 3212:0.006177458 3213:0.0047842041 3214:0.0044002952 3215:0.0039252085 3216:0.0044851466 3217:0.006699787 3218:0.0055415831 3219:0.004332555 3220:0.0021174538 3221:0.0014952415 3222:0.0042455699 3223:0.0046258867 3224:0.0025462441 3225:0.0063955546 3226:0.0055131339 3227:0.0081230719 3228:0.0063363654 3229:0.003142861 3230:0.0027706756 3231:0.0019665998 3232:0.0046636416 3233:0.0048036571 3234:0.0065426775 3235:0.0083360532 3236:0.0065364847 3237:0.0027314741 3238:0.0024971787 3239:0.0018396812 3240:0.001553243 3241:0.0071838289 3242:0.017148033 3243:0.077043734 3244:0.10211962 3245:0.073049732 3246:0.011891573 3247:0.010228825 3248:0.0070195268 3249:0.0039513474 3250:0.0046210783 3251:0.0059908242 3252:0.0079868594 3253:0.033448152 3254:0.07420712 3255:0.044519268 3256:0.014124402 3257:0.014608132 3258:0.0080040004 3259:0.005639147 3260:0.0068839616 3261:0.0074529671 3262:0.0098935012 3263:0.014812819 3264:0.018403593 3265:0.010199043 3266:0.0056426581 3267:0.0085764807 3268:0.0029748224 3269:0.0049937312 3270:0.0059042266 3271:0.010363556 3272:0.014266837 3273:0.0078349607 3274:0.0080679739 3275:0.0053911228 3276:0.0052361088 3277:0.0053708479 3278:0.0077314386 3279:0.0086285863 3280:0.026615938 3281:0.036646333 3282:0.016216425 3283:0.0066262218 3284:0.0062773121 3285:0.0048615374 3286:0.0050583347 3287:0.0052852007 3288:0.0064270222 3289:0.01996094 3290:0.022460323 3291:0.017095469 3292:0.0054701418 3293:0.0044510337 3294:0.0026839923 3295:0.0047006607 3296:0.0025874022 3297:0.0064989342 3298:0.0056022499 3299:0.0082543753 3300:0.006438788 3301:0.003193663 3302:0.0028154615 3303:0.0019983884 3304:0.0047390261 3305:0.0048813047 3306:0.0066484348 3307:0.0084707988 3308:0.0066421418 3309:0.0027756265 3310:0.0025375437 3311:0.0018694183 3312:0.0015783501 3313:0.0045403712 3314:0.0038312387 3315:0.0072787595 3316:0.0066177086 3317:0.0056647556 3318:0.0052942666 3319:0.0024421527 3320:0.0026358915 3321:0.0019034753 3322:0.006677561 3323:0.0086568743 3324:0.011541189 3325:0.048333324 3326:0.10723093 3327:0.06433133 3328:0.020410074 3329:0.021109074 3330:0.011565959 3331:0.0081486925 3332:0.0099474778 3333:0.010769703 3334:0.014296329 3335:0.021404853 3336:0.026593601 3337:0.014737844 3338:0.0081537664 3339:0.012393205 3340:0.0032473644 3341:0.0042766184 3342:0.0065902281 3343:0.0061380207 3344:0.0088840025 3345:0.0045339093 3346:0.0049567795 3347:0.0040061167 3348:0.0027363955 3349:0.0077609941 3350:0.011172101 3351:0.012468498 3352:0.03846062 3353:0.052954763 3354:0.023433095 3355:0.0095750382 3356:0.0090708556 3357:0.0070250295 3358:0.0073094061 3359:0.0076372321 3360:0.0092871897 3361:0.028844001 3362:0.032455668 3363:0.024703333 3364:0.0079044765 3365:0.0064318422 3366:0.0038784284 3367:0.0068048988 3368:0.008157447 3369:0.014047896 3370:0.0085614836 3371:0.0051456615 3372:0.002824151 3373:0.0038385123 3374:0.0067384732 3375:0.0050394391 3376:0.0068479977 3377:0.0070535936 3378:0.0096071362 3379:0.012240493 3380:0.0095980428 3381:0.0040108417 3382:0.003666807 3383:0.002701351 3384:0.002280751 3385:0.006560937 3386:0.0055362252 3387:0.010517969 3388:0.0095627364 3389:0.0081856977 3390:0.0076503325 3391:0.0035289647 3392:0.0038089219 3393:0.0027505639 3394:0.0039751153 3395:0.0041059381 3396:0.0091792298 3397:0.010058958 3398:0.011257363 3399:0.0042093187 3400:0.0039899144 3401:0.0015457763 3402:0.0023502635 #
0.96674804611116271768622709714691 1:0.0034513432 2:0.0071464125 3:0.019128583 4:0.0078547318 5:0.0037073495 6:0.00070141006 7:0.0010046631 8:0.0019385711 9:0.0016905477 10:0.022703251 11:0.021446556 12:0.017175699 13:0.013205464 14:0.0050444654 15:0.00063100079 16:0.0028722484 17:0.0059053903 18:0.010307597 19:0.03514057 20:0.035369992 21:0.017537812 22:0.0036371306 23:0.0034841078 24:0.0010364653 25:0.0019812693 26:0.0050595016 27:0.010510254 28:0.0079044346 29:0.01512569 30:0.052957367 31:0.017869614 32:0.0083098877 33:0.0014043722 34:0.0011758901 35:0.00264825 36:0.0032490583 37:0.03059026 38:0.011347614 39:0.0058653704 40:0.0014506681 41:0.0025044647 42:0.0047754357 43:0.0067812526 44:0.017024834 45:0.038373683 46:0.026241876 47:0.011033729 48:0.0030336697 49:0.0024887477 50:0.0061575491 51:0.0050159614 52:0.010816216 53:0.019022763 54:0.039243866 55:0.0018153954 56:0.015367075 57:0.047442526 58:0.034072563 59:0.012593718 60:0.0056149256 61:0.0018885848 62:0.0012004744 63:0.0031760621 64:0.014480519 65:0.0066433707 66:0.0072672069 67:0.0087117553 68:0.009304747 69:0.023144938 70:0.017775683 71:0.017478425 72:0.01563015 73:0.021968683 74:0.0097522205 75:0.0081825498 76:0.0039366316 77:0.0031235653 78:0.0063288165 79:0.012428651 80:0.036659241 81:0.041919272 82:0.020619832 83:0.019478459 84:0.015599527 85:0.011993632 86:0.0045815478 87:0.00057309546 88:0.0026086695 89:0.0053634676 90:0.0093616955 91:0.03191581 92:0.032124177 93:0.015928412 94:0.0033033604 95:0.0031643801 96:0.00094135152 97:0.0017994534 98:0.0045952043 99:0.0095457537 100:0.031154091 101:0.02743838 102:0.016833371 103:0.0033576281 104:0.0020796522 105:0.0021112892 106:0.0015643368 107:0.003042503 108:0.0088998424 109:0.02778307 110:0.010306273 111:0.00532712 112:0.001317544 113:0.0022746364 114:0.004337206 115:0.006158954 116:0.015462507 117:0.034852225 118:0.023833726 119:0.010021191 120:0.0027552776 121:0.0022603616 122:0.0055924864 123:0.0045556594 124:0.0098236399 125:0.017277092 126:0.035642557 127:0.034913372 128:0.016983286 129:0.0054880679 130:0.0045240764 131:0.0040910947 132:0.0029902502 133:0.0063965558 134:0.016414218 135:0.03740501 136:0.013151678 137:0.0060337256 138:0.0066003138 139:0.0079122996 140:0.0084508741 141:0.021020986 142:0.016144454 143:0.015874473 144:0.014195811 145:0.019952672 146:0.0088572837 147:0.0074316585 148:0.0035753769 149:0.0028369238 150:0.0057480372 151:0.011288105 152:0.033295117 153:0.038072448 154:0.027052436 155:0.0042604399 156:0.0030248303 157:0.0034375717 158:0.0033988704 159:0.0044110399 160:0.0094875293 161:0.017095715 162:0.048616901 163:0.031644989 164:0.031851586 165:0.015793251 166:0.0032753295 167:0.0031375287 168:0.00093336368 169:0.0017841841 170:0.0045562116 171:0.0094647538 172:0.030889733 173:0.027205551 174:0.01669053 175:0.0033291369 176:0.0020620052 177:0.0020933738 178:0.0015510626 179:0.0030166858 180:0.0088243233 181:0.016000122 182:0.048243392 183:0.020983513 184:0.0056734462 185:0.0053202803 186:0.0028630046 187:0.0024333515 188:0.0015504787 189:0.0015239492 190:0.023631483 191:0.0099361567 192:0.0027318976 193:0.0022411812 194:0.0055450313 195:0.004517002 196:0.0097402819 197:0.017130487 198:0.035340112 199:0.034617115 200:0.016839175 201:0.0054414989 202:0.0044856872 203:0.0040563797 204:0.0029648764 205:0.0063422774 206:0.016274935 207:0.037087608 208:0.034049533 209:0.031539738 210:0.016314223 211:0.0040151193 212:0.0020159199 213:0.0015412718 214:0.0029429598 215:0.0040380298 216:0.013334827 217:0.019783363 218:0.0087821251 219:0.0073685967 220:0.0035450379 221:0.002812851 222:0.005699262 223:0.011192319 224:0.033012591 225:0.037749384 226:0.026822882 227:0.0042242878 228:0.002999163 229:0.0034084022 230:0.0033700294 231:0.0043736096 232:0.009407022 233:0.016950648 234:0.048204359 235:0.042491902 236:0.018261883 237:0.0028766326 238:0.0024692721 239:0.0009494737 240:0.0010766594 241:0.00064537377 242:0.0049040751 243:0.025202902 244:0.031806942 245:0.028013365 246:0.017186122 247:0.0034279891 248:0.0021232325 249:0.0021555324 250:0.0015971183 251:0.0031062602 252:0.0090863435 253:0.016475214 254:0.049675886 255:0.021606578 256:0.005841908 257:0.0054782559 258:0.0029480159 259:0.0025056049 260:0.0015965172 261:0.0015691998 262:0.0097564859 263:0.037926085 264:0.03790294 265:0.0081902817 266:0.0079376884 267:0.0024374665 268:0.0022419111 269:0.0029409153 270:0.003765644 271:0.035645001 272:0.017339179 273:0.0056030736 274:0.0046188808 275:0.0041768258 276:0.0030529124 277:0.0065305987 278:0.016758187 279:0.038188852 280:0.035060566 281:0.03247625 282:0.016798642 283:0.0041343402 284:0.0020757786 285:0.0015870368 286:0.0030303451 287:0.0041579311 288:0.013730779 289:0.024312206 290:0.049437881 291:0.018298833 292:0.0041216281 293:0.0012634773 294:0.00074184185 295:0.0014687122 296:0.0039336346 297:0.011229234 298:0.027619334 299:0.0043497197 300:0.0030882172 301:0.0035096079 302:0.0034700956 303:0.0045034755 304:0.0096863452 305:0.017453965 306:0.049635693 307:0.043753617 308:0.018804135 309:0.0029620486 310:0.0025425921 311:0.00097766647 312:0.0011086287 313:0.0006645369 314:0.005049692 315:0.025951251 316:0.035250023 317:0.02850212 318:0.0077380477 319:0.001912786 320:0.0011049354 321:0.00054471975 322:0.00087020738 323:0.0032273731 324:0.016640734 325:0.016944213 326:0.05109001 327:0.022221651 328:0.0060082097 329:0.0056342054 330:0.0030319369 331:0.0025769321 332:0.0016419652 333:0.0016138703 334:0.010034223 335:0.039005727 336:0.038981922 337:0.0084234346 338:0.0081636505 339:0.0025068538 340:0.0023057316 341:0.0030246344 342:0.0038728407 343:0.015064852 344:0.048506007 345:0.033255406 346:0.0096031185 347:0.004942527 348:0.001078603 349:0.00069602061 350:0.00055554538 351:0.0036393178 352:0.036058635 353:0.033400752 354:0.01727685 355:0.0042520324 356:0.0021348698 357:0.001632215 358:0.00311661 359:0.0042762947 360:0.014121653 361:0.025004301 362:0.050845228 363:0.018819746 364:0.0042389585 365:0.0012994446 366:0.00076295988 367:0.001510522 368:0.0040456136 369:0.011548896 370:0.040775295 371:0.049164034 372:0.0052635209 373:0.001635932 374:0.00025549089 375:0.00046689584 376:0.00082854973 377:0.0028764845 378:0.0089676445 379:0.044999149 380:0.019339431 381:0.0030463692 382:0.0026149722 383:0.0010054976 384:0.001140188 385:0.00068345421 386:0.0051934416 387:0.026690006 388:0.036253482 389:0.02931349 390:0.0079583265 391:0.0019672373 392:0.0011363896 393:0.00056022627 394:0.00089497957 395:0.0033192467 396:0.017114444 397:0.041346438 398:0.034051061 399:0.005885954 400:0.0023237704 401:0.001881319 402:0.0010013982 403:0.0027455587 404:0.0049446947 405:0.013579969 406:0.0091979364 407:0.035754856 408:0.035733037 409:0.0077213966 410:0.0074832644 411:0.0022979239 412:0.0021135639 413:0.002772551 414:0.003550065 415:0.013809296 416:0.044463348 417:0.030483786 418:0.0088027623 419:0.0045305998 420:0.00098870846 421:0.00063801184 422:0.00050924433 423:0.0033360047 424:0.038857877 425:0.059947111 426:0.021725303 427:0.0056266664 428:0.0036088196 429:0.00066034892 430:0.00077728159 431:0.0013948731 432:0.0043719602 433:0.022920357 434:0.046607614 435:0.017251242 436:0.0038856689 437:0.0011911445 438:0.00069937221 439:0.00138463 440:0.003708438 441:0.010586372 442:0.03737694 443:0.045066535 444:0.0048248409 445:0.0014995878 446:0.00023419739 447:0.00042798312 448:0.00075949554 449:0.0026367484 450:0.0082202507 451:0.061981183 452:0.059322994 453:0.0042665834 454:0.0010776953 455:0.00020804923 456:0.00029441188 457:0.0010214488 458:0.001335335 459:0.006328464 460:0.033231996 461:0.026870403 462:0.0072950525 463:0.001803281 464:0.0010416789 465:0.00051353511 466:0.0008203889 467:0.0030426094 468:0.015688067 469:0.037900485 470:0.031213127 471:0.0053953985 472:0.0021300996 473:0.0017245234 474:0.00091793819 475:0.0025167344 476:0.0045325868 477:0.012448168 478:0.048847612 479:0.036600143 480:0.0042001507 481:0.0017439858 482:0.0017661812 483:0.00089830055 484:0.0019132399 485:0.0026439147 486:0.016020611 487:0.012139046 488:0.039085452 489:0.026796736 490:0.0077380575 491:0.0039826185 492:0.00086912303 493:0.00056084356 494:0.00044765064 495:0.002932511 496:0.034157969 497:0.052696433 498:0.0190976 499:0.0049461145 500:0.0031723285 501:0.00058047893 502:0.00068326842 503:0.0012261616 504:0.0038431664 505:0.075864859 506:0.028468775 507:0.0040306984 508:0.0019652213 509:0.0013342081 510:0.00033105217 511:0.00089064857 512:0.00040071178 513:0.016081389 514:0.032856155 515:0.039615683 516:0.0042412705 517:0.0013182109 518:0.00020587094 519:0.00037621806 520:0.00066763366 521:0.0023178305 522:0.0072260015 523:0.054484483 524:0.052147809 525:0.0037505352 526:0.00094734679 527:0.00018288541 528:0.00025880241 529:0.00089790334 530:0.0011738245 531:0.0055630286 532:0.079019465 533:0.026428111 534:0.0026267611 535:0.0017086464 536:0.0014851789 537:0.00083178515 538:0.002942495 539:0.0013594914 540:0.0158133 541:0.033316378 542:0.027437862 543:0.0047428184 544:0.0018724614 545:0.0015159402 546:0.00080691249 547:0.0022123323 548:0.0039843651 549:0.010942547 550:0.042939436 551:0.032173313 552:0.0036921373 553:0.0015330487 554:0.0015525596 555:0.00078965002 556:0.0016818313 557:0.0023241299 558:0.014082899 559:0.016230389 560:0.050007693 561:0.026826592 562:0.0037797112 563:0.0015319568 564:0.0028757919 565:0.0072078994 566:0.0090254331 567:0.010139728 568:0.031911973 569:0.04923147 570:0.01784187 571:0.0046208911 572:0.0029637374 573:0.00054231053 574:0.0006383413 575:0.0011455375 576:0.0035904655 577:0.070876494 578:0.026596859 579:0.0037656669 580:0.0018360015 581:0.0012464795 582:0.0003092844 583:0.00083208556 584:0.00037436368 585:0.015023985 586:0.069472082 587:0.018869786 588:0.0036556765 589:0.00094522617 590:0.0002250393 591:0.00092689967 592:0.00052087533 593:0.0012270412 594:0.017169558 595:0.050901949 596:0.048718918 597:0.0035039252 598:0.00088505558 599:0.0001708601 600:0.0002417853 601:0.00083886326 602:0.0010966418 603:0.005197241 604:0.073823676 605:0.024690377 606:0.0024540429 607:0.0015962974 608:0.0013875236 609:0.00077709253 610:0.0027490165 611:0.0012701004 612:0.014773523 613:0.015828723 614:0.0039507458 615:0.0020559845 616:0.00098718575 617:0.002430195 618:0.0013520252 619:0.0046403231 620:0.01283114 621:0.053995911 622:0.040116027 623:0.030057812 624:0.0034493671 625:0.0014322456 626:0.0014504736 627:0.00073772791 628:0.0015712454 629:0.0021713108 630:0.013156902 631:0.015163189 632:0.046719521 633:0.025062656 634:0.0035311827 635:0.0014312257 636:0.0026866992 637:0.0067339563 638:0.0084319813 639:0.0094730081 640:0.012234087 641:0.0030319344 642:0.0037030135 643:0.0020279121 644:0.0021240995 645:0.011743767 646:0.0086200442 647:0.023700265 648:0.039925437 649:0.075277358 650:0.02824831 651:0.0039994847 652:0.0019500025 653:0.0013238759 654:0.00032848847 655:0.00088375137 656:0.00039760864 657:0.015956854 658:0.073785745 659:0.020041449 660:0.0038826647 661:0.0010039172 662:0.00023901244 663:0.00098445266 664:0.00055321754 665:0.0013032306 666:0.01823565 667:0.042816058 668:0.0031669433 669:0.0011602433 670:0.00108941 671:0.00067862123 672:0.00037752188 673:0.0011778863 674:0.0054734959 675:0.040875372 676:0.078407533 677:0.026223451 678:0.0026064194 679:0.0016954147 680:0.0014736777 681:0.00082534371 682:0.0029197084 683:0.0013489634 684:0.015690841 685:0.016811561 686:0.0041960557 687:0.0021836446 688:0.001048482 689:0.0025810907 690:0.0014359752 691:0.0049284501 692:0.01362785 693:0.057348624 694:0.047699735 695:0.015931739 696:0.003220672 697:0.00067603344 698:0.0009853479 699:0.00040908562 700:0.0008581127 701:0.0021460417 702:0.025528263 703:0.0161047 704:0.049620431 705:0.026618846 706:0.0037504409 707:0.0015200933 708:0.0028535216 709:0.007152081 710:0.0089555401 711:0.010061205 712:0.012993726 713:0.0032201931 714:0.0039329408 715:0.0021538292 716:0.002255989 717:0.01247296 718:0.00915528 719:0.025171863 720:0.042404488 721:0.016327048 722:0.0021913713 723:0.0047554858 724:0.0023446702 725:0.0031463611 726:0.0029454837 727:0.0056327805 728:0.010952377 729:0.033283293 730:0.089008667 731:0.024176249 732:0.0046837069 733:0.0012110377 734:0.00028832367 735:0.0011875576 736:0.00066735322 737:0.0015721035 738:0.021997893 739:0.051649548 740:0.0038203232 741:0.0013996159 742:0.0013141689 743:0.00081862923 744:0.00045540935 745:0.0014208989 746:0.0066027464 747:0.049308471 748:0.038801603 749:0.0015667309 750:0.00099717767 751:0.0002832161 752:0.00039786886 753:0.00022956599 754:0.00061118428 755:0.0044376538 756:0.05324401 757:0.020279996 758:0.005061754 759:0.0026341577 760:0.0012647969 761:0.0031136018 762:0.0017322347 763:0.0059452509 764:0.016439447 765:0.069180362 766:0.057540786 767:0.019218653 768:0.0038851367 769:0.00081550755 770:0.0011886375 771:0.00049348507 772:0.0010351521 773:0.0025887969 774:0.030795064 775:0.023016948 776:0.0052810069 777:0.00251455 778:0.0017762425 779:0.0016798277 780:0.0023061642 781:0.0038522147 782:0.012250054 783:0.037007079 784:0.015674494 785:0.0038845593 786:0.0047443556 787:0.0025981911 788:0.0027214277 789:0.015046288 790:0.011044129 791:0.030365132 792:0.051153064 793:0.01969552 794:0.0026434783 795:0.0057366015 796:0.002828405 797:0.0037954946 798:0.0035531737 799:0.0067948932 800:0.013211989 801:0.04015005 802:0.0084214928 803:0.0033003215 804:0.0058305035 805:0.0034047854 806:0.0039365925 807:0.0057882322 808:0.0058941012 809:0.0097506251 810:0.022977287 811:0.056519695 812:0.0041805496 813:0.0015315887 814:0.0014380848 815:0.00089581957 816:0.00049835088 817:0.0015548785 818:0.0072253337 819:0.053957872 820:0.042460289 821:0.0017144613 822:0.0010912037 823:0.00030992116 824:0.00043538478 825:0.00025121227 826:0.00066881417 827:0.0048560901 828:0.058264498 829:0.070314668 830:0.021681126 831:0.0057043238 832:0.0012740254 833:0.0010807479 834:0.001020954 835:0.001887108 836:0.00565839 837:0.031747222 838:0.062966429 839:0.021030823 840:0.0042514745 841:0.00089240354 842:0.0013007167 843:0.00054001686 844:0.0011327588 845:0.0028329 846:0.033698794 847:0.025187265 848:0.0057789641 849:0.0027516524 850:0.0019437282 851:0.0018382223 852:0.0025236174 853:0.0042154482 854:0.013405138 855:0.040496554 856:0.062141038 857:0.015021673 858:0.0054423693 859:0.0048273546 860:0.001765521 861:0.0032523291 862:0.0031913801 863:0.01020686 864:0.032643877 865:0.021552654 866:0.0028927377 867:0.0062775179 868:0.0030951013 869:0.0041533802 870:0.00388821 871:0.0074355984 872:0.014457775 873:0.043935884 874:0.0092155728 875:0.003611516 876:0.0063802744 877:0.00372583 878:0.0043077823 879:0.0063340166 880:0.0064498689 881:0.010670032 882:0.025143864 883:0.01192657 884:0.012536895 885:0.016481079 886:0.0050985315 887:0.0051099132 888:0.0022183149 889:0.0030654836 890:0.0046418058 891:0.01188444 892:0.045084819 893:0.0018204346 894:0.0011586525 895:0.00032907783 896:0.00046229651 897:0.00026674007 898:0.00071015453 899:0.0051562516 900:0.061865911 901:0.07466092 902:0.023021266 903:0.006056916 904:0.0013527748 905:0.0011475505 906:0.0010840606 907:0.0020037526 908:0.0060081431 909:0.033709563 910:0.029729962 911:0.061137419 912:0.030565511 913:0.006384464 914:0.0031292043 915:0.002100761 916:0.0018436054 917:0.0012762229 918:0.0086192051 919:0.026744125 920:0.0061361701 921:0.0029217359 922:0.0020638728 923:0.0019518454 924:0.0026796057 925:0.0044760113 926:0.014233729 927:0.042999703 928:0.065982066 929:0.015950184 930:0.00577877 931:0.0051257405 932:0.0018746504 933:0.0034533602 934:0.0033886437 935:0.010837762 936:0.034661639 937:0.023000656 938:0.055721894 939:0.021083655 940:0.0047241789 941:0.0019667263 942:0.0052426374 943:0.0028272893 944:0.0043323697 945:0.013537161 946:0.0097852005 947:0.0038347489 948:0.0067746481 949:0.0039561288 950:0.0045740525 951:0.0067255315 952:0.0068485443 953:0.011329561 954:0.026698042 955:0.012663769 956:0.013311818 957:0.017499797 958:0.0054136789 959:0.0054257638 960:0.0023554321 961:0.0032549656 962:0.0049287225 963:0.012619033 964:0.0074361749 965:0.0055751386 966:0.0077259508 967:0.0036002444 968:0.0028123036 969:0.0029096429 970:0.0037810877 971:0.0070984764 972:0.0066713369 973:0.065871596 974:0.020311128 975:0.0053438763 976:0.0011935218 977:0.0010124572 978:0.00095644151 979:0.0017678645 980:0.005300845 981:0.029741166 982:0.026230056 983:0.053940125 984:0.02696724 985:0.0056328643 986:0.0027608243 987:0.0018534528 988:0.0016265702 989:0.0011259818 990:0.0076045245 991:0.011486914 992:0.027909307 993:0.021854179 994:0.013796608 995:0.010217536 996:0.0091411648 997:0.010488101 998:0.012444014 999:0.010894828 1000:0.058214441 1001:0.014072478 1002:0.0050984742 1003:0.0045223217 1004:0.0016539604 1005:0.0030468195 1006:0.0029897217 1007:0.0095619047 1008:0.03058116 1009:0.020292943 1010:0.049162135 1011:0.018601619 1012:0.0041680336 1013:0.0017351968 1014:0.0046254569 1015:0.0024944516 1016:0.003822349 1017:0.011943523 1018:0.015573062 1019:0.0405907 1020:0.022186797 1021:0.01141054 1022:0.010021102 1023:0.008543944 1024:0.014231732 1025:0.010835324 1026:0.016276466 1027:0.011172948 1028:0.011744709 1029:0.015439665 1030:0.0047763633 1031:0.0047870255 1032:0.0020781432 1033:0.0028717804 1034:0.0043484974 1035:0.01113348 1036:0.0065607643 1037:0.0049188156 1038:0.0068164268 1039:0.0031764118 1040:0.0024812301 1041:0.0025671104 1042:0.0033359658 1043:0.0062628211 1044:0.0058859657 1045:0.018223794 1046:0.010408038 1047:0.0057530142 1048:0.010840978 1049:0.01562475 1050:0.016313011 1051:0.010081122 1052:0.0068189348 1053:0.011841865 1054:0.029781805 1055:0.061244033 1056:0.030618813 1057:0.0063955975 1058:0.0031346611 1059:0.0021044244 1060:0.0018468203 1061:0.0012784484 1062:0.0086342357 1063:0.013042331 1064:0.031688441 1065:0.024813402 1066:0.015664775 1067:0.011601069 1068:0.010378948 1069:0.01190827 1070:0.014129029 1071:0.012370071 1072:0.014409373 1073:0.0089270091 1074:0.0043396065 1075:0.0010016231 1076:0.0031222519 1077:0.0020386865 1078:0.0022589851 1079:0.0058323988 1080:0.016807538 1081:0.023040764 1082:0.055819064 1083:0.02112042 1084:0.0047324174 1085:0.0019701559 1086:0.0052517792 1087:0.0028322195 1088:0.0043399245 1089:0.013560767 1090:0.017681774 1091:0.046086993 1092:0.025191059 1093:0.012955614 1094:0.011378036 1095:0.0097008599 1096:0.016158817 1097:0.01230251 1098:0.018480426 1099:0.0074625048 1100:0.0060075549 1101:0.0063280333 1102:0.010696405 1103:0.017048366 1104:0.0089269243 1105:0.0054284153 1106:0.0078262743 1107:0.011272 1108:0.0074491422 1109:0.0055848607 1110:0.0077394233 1111:0.0036065225 1112:0.0028172077 1113:0.002914717 1114:0.0037876812 1115:0.0071108551 1116:0.0066829706 1117:0.020691438 1118:0.011817366 1119:0.0065320167 1120:0.01230893 1121:0.017740462 1122:0.018521918 1123:0.011446184 1124:0.0077422708 1125:0.013445346 1126:0.013155117 1127:0.0080913641 1128:0.0065262653 1129:0.0090004513 1130:0.016459377 1131:0.011245864 1132:0.0099964207 1133:0.010267843 1134:0.014336846 1135:0.0075070686 1136:0.014365303 1137:0.050295137 1138:0.016971286 1139:0.0078921402 1140:0.0013337728 1141:0.0011167767 1142:0.0025151193 1143:0.0030857241 1144:0.029052451 1145:0.010777156 1146:0.0055705109 1147:0.0013777413 1148:0.0023785622 1149:0.0045353686 1150:0.0064403508 1151:0.016168974 1152:0.036444589 1153:0.024922665 1154:0.01047905 1155:0.0028811635 1156:0.0023636352 1157:0.0058480017 1158:0.004763803 1159:0.010272472 1160:0.018066466 1161:0.03727103 1162:0.0017241333 1163:0.014594553 1164:0.045057535 1165:0.032359693 1166:0.011960617 1167:0.0053326567 1168:0.0017936433 1169:0.0011401252 1170:0.0030163976 1171:0.013752566 1172:0.0063094003 1173:0.0069018761 1174:0.0082738046 1175:0.0088369856 1176:0.021981414 1177:0.016882079 1178:0.016599763 1179:0.014844404 1180:0.020864291 1181:0.0092619639 1182:0.0077712033 1183:0.0037387323 1184:0.0029665399 1185:0.0060106595 1186:0.011803848 1187:0.03481634 1188:0.039811939 1189:0.0068910522 1190:0.0095581282 1191:0.012554195 1192:0.030129798 1193:0.014541606 1194:0.0032894802 1195:0.00097679882 1196:0.0044291019 1197:0.0054133204 1198:0.0042020441 1199:0.0032302584 1200:0.0044350214 1201:0.0090360017 1202:0.035005335 1203:0.02680498 1204:0.0080861552 1205:0.0052429535 1206:0.0034273288 1207:0.02399507 1208:0.0077543762 1209:0.0047363448 1210:0.0049647987 1211:0.0029380315 1212:0.0056751929 1213:0.012751382 1214:0.019166574 1215:0.027654571 1216:0.027984211 1217:0.010380887 1218:0.0053656874 1219:0.0013270827 1220:0.0022911043 1221:0.0043686065 1222:0.0062035439 1223:0.015574452 1224:0.03510455 1225:0.024006277 1226:0.010093742 1227:0.0027752251 1228:0.0022767261 1229:0.0056329747 1230:0.0045886412 1231:0.0098947613 1232:0.017402174 1233:0.0359006 1234:0.035166137 1235:0.017106241 1236:0.0055278004 1237:0.00455683 1238:0.0041207131 1239:0.0030118988 1240:0.0064428654 1241:0.016533054 1242:0.037675813 1243:0.013246894 1244:0.0060774083 1245:0.0066480986 1246:0.0079695825 1247:0.0085120564 1248:0.021173174 1249:0.016261335 1250:0.0159894 1251:0.014298585 1252:0.020097125 1253:0.0089214081 1254:0.0074854619 1255:0.0036012619 1256:0.0028574623 1257:0.0057896515 1258:0.011369828 1259:0.033536166 1260:0.038348082 1261:0.027248289 1262:0.0042912844 1263:0.0030467294 1264:0.003462459 1265:0.0034234775 1266:0.0044429745 1267:0.0095562162 1268:0.017219484 1269:0.048968874 1270:0.0040475382 1271:0.0031114842 1272:0.0042719492 1273:0.0087037543 1274:0.033718213 1275:0.02581938 1276:0.0077888332 1277:0.0050501735 1278:0.0033013083 1279:0.023112789 1280:0.0074692531 1281:0.0045621926 1282:0.0047822464 1283:0.002830002 1284:0.0054665199 1285:0.012282522 1286:0.018461831 1287:0.026637731 1288:0.026657198 1289:0.007026141 1290:0.0025007839 1291:0.0014275962 1292:0.0019699568 1293:0.00063195499 1294:0.0029204236 1295:0.0094768349 1296:0.030809879 1297:0.024209935 1298:0.010179373 1299:0.0027987689 1300:0.002296041 1301:0.0056807622 1302:0.0046275691 1303:0.0099787042 1304:0.017549807 1305:0.036205165 1306:0.035464473 1307:0.017251363 1308:0.0055746962 1309:0.0045954883 1310:0.0041556717 1311:0.0030374506 1312:0.0064975237 1313:0.016673313 1314:0.037995439 1315:0.034882996 1316:0.032311767 1317:0.016713563 1318:0.0041134013 1319:0.0020652656 1320:0.0015789991 1321:0.0030149976 1322:0.0041368725 1323:0.013661237 1324:0.020267621 1325:0.0089970939 1326:0.0075489655 1327:0.0036318135 1328:0.0028817039 1329:0.0058387686 1330:0.011466285 1331:0.033820674 1332:0.038673412 1333:0.027479453 1334:0.0043276902 1335:0.0030725766 1336:0.0034918331 1337:0.0034525208 1338:0.0044806669 1339:0.0096372878 1340:0.017365567 1341:0.049384307 1342:0.043532021 1343:0.0187089 1344:0.0029470469 1345:0.002529715 1346:0.00097271492 1347:0.0011030139 1348:0.00066117127 1349:0.0050241174 1350:0.025819819 1351:0.023308868 1352:0.0075326194 1353:0.0046008965 1354:0.0048228172 1355:0.0028540106 1356:0.0055128955 1357:0.012386722 1358:0.018618455 1359:0.026863715 1360:0.026883347 1361:0.007085748 1362:0.0025219994 1363:0.0014397074 1364:0.0019866691 1365:0.00063731626 1366:0.0029451994 1367:0.0095572332 1368:0.031071257 1369:0.035494447 1370:0.013471003 1371:0.001666235 1372:0.00088014349 1373:0.0023525017 1374:0.0018416815 1375:0.0014220802 1376:0.010946167 1377:0.026922617 1378:0.038404193 1379:0.018681364 1380:0.0060367938 1381:0.0049764174 1382:0.0045001437 1383:0.0032892309 1384:0.0070361169 1385:0.018055398 1386:0.041144956 1387:0.037774518 1388:0.034990158 1389:0.018098984 1390:0.0044543697 1391:0.0022364596 1392:0.0017098854 1393:0.0032649168 1394:0.0044797864 1395:0.014793645 1396:0.026194155 1397:0.053264748 1398:0.0197153 1399:0.0044406732 1400:0.0013612799 1401:0.00079926604 1402:0.0015824017 1403:0.0042381277 1404:0.012098461 1405:0.02975728 1406:0.0046864212 1407:0.0033272686 1408:0.0037812782 1409:0.0037387074 1410:0.0048520784 1411:0.010436142 1412:0.018805034 1413:0.053477872 1414:0.047140475 1415:0.020259717 1416:0.0031913335 1417:0.0027394081 1418:0.0010533452 1419:0.001194445 1420:0.00071597705 1421:0.0054405765 1422:0.027960075 1423:0.037978642 1424:0.030708401 1425:0.0083370311 1426:0.0020608502 1427:0.0011904658 1428:0.00058688514 1429:0.00093756802 1430:0.0034771962 1431:0.017928852 1432:0.029111762 1433:0.0076730996 1434:0.0027310529 1435:0.0015590476 1436:0.0021513482 1437:0.00069014466 1438:0.0031893328 1439:0.010349451 1440:0.033646815 1441:0.038436651 1442:0.014587642 1443:0.0018043526 1444:0.00095310039 1445:0.0025475053 1446:0.0019943421 1447:0.0015399593 1448:0.011853516 1449:0.029154288 1450:0.029071514 1451:0.016564768 1452:0.0049359193 1453:0.0023713289 1454:0.00098836888 1455:0.0010121771 1456:0.00211858 1457:0.0042422162 1458:0.011329318 1459:0.041292693 1460:0.038249008 1461:0.019784655 1462:0.0048692329 1463:0.0024447551 1464:0.0018691377 1465:0.0035689988 1466:0.0048970166 1467:0.01617147 1468:0.028633779 1469:0.058225628 1470:0.021551508 1471:0.0048542609 1472:0.0014880644 1473:0.00087370665 1474:0.0017297806 1475:0.0046328511 1476:0.013225267 1477:0.046693999 1478:0.056300398 1479:0.006027543 1480:0.0018733944 1481:0.00029257644 1482:0.00053466769 1483:0.00094881718 1484:0.0032940183 1485:0.010269336 1486:0.051530965 1487:0.022146631 1488:0.0034885623 1489:0.0029945462 1490:0.0011514499 1491:0.0013056911 1492:0.0007826605 1493:0.0059472914 1494:0.030564172 1495:0.041515827 1496:0.033568464 1497:0.0091135111 1498:0.0022527901 1499:0.0013013412 1500:0.00064154546 1501:0.0010248895 1502:0.0038010492 1503:0.019598678 1504:0.047348049 1505:0.038993713 1506:0.0067403247 1507:0.0026610754 1508:0.0021544003 1509:0.0011467553 1510:0.003144088 1511:0.0056624375 1512:0.015551158 1513:0.042016495 1514:0.01594628 1515:0.0019724031 1516:0.0010418686 1517:0.0027847704 1518:0.0021800876 1519:0.0016833853 1520:0.012957508 1521:0.031869609 1522:0.031779125 1523:0.018107548 1524:0.0053956322 1525:0.0025921855 1526:0.0010804218 1527:0.0011064475 1528:0.0023158966 1529:0.0046373201 1530:0.012384488 1531:0.017361255 1532:0.0081561739 1533:0.0032996894 1534:0.0021332318 1535:0.0016541833 1536:0.0014892056 1537:0.0013605088 1538:0.0067294771 1539:0.015227425 1540:0.028228926 1541:0.057402372 1542:0.021246791 1543:0.0047856262 1544:0.0014670246 1545:0.0008613533 1546:0.0017053231 1547:0.004567347 1548:0.013038274 1549:0.046033788 1550:0.055504363 1551:0.0059423191 1552:0.0018469063 1553:0.00028843968 1554:0.00052710803 1555:0.00093540177 1556:0.0032474438 1557:0.010124138 1558:0.0763366 1559:0.073062755 1560:0.0052547641 1561:0.0013272995 1562:0.00025623536 1563:0.0003626004 1564:0.0012580259 1565:0.0016446109 1566:0.0077941949 1567:0.040928833 1568:0.03309384 1569:0.0089846542 1570:0.0022209377 1571:0.0012829416 1572:0.00063247461 1573:0.0010103986 1574:0.0037473061 1575:0.01932157 1576:0.046678592 1577:0.038442377 1578:0.0066450229 1579:0.0026234502 1580:0.0021239391 1581:0.0011305412 1582:0.0030996336 1583:0.0055823759 1584:0.015331279 1585:0.060161173 1586:0.045077078 1587:0.0051729442 1588:0.0021479093 1589:0.0021752452 1590:0.0011063553 1591:0.0023563642 1592:0.0032562697 1593:0.019731134 1594:0.031329799 1595:0.017851524 1596:0.0053193434 1597:0.0025555345 1598:0.0010651457 1599:0.0010908034 1600:0.002283152 1601:0.0045717531 1602:0.012209384 1603:0.017115783 1604:0.0080408538 1605:0.003253035 1606:0.0021030698 1607:0.0016307946 1608:0.0014681497 1609:0.0013412725 1610:0.0066343285 1611:0.015012123 1612:0.035125755 1613:0.009303648 1614:0.0038384222 1615:0.0019887763 1616:0.00079400517 1617:0.00075631868 1618:0.00034008431 1619:0.0012778246 1620:0.012576149 1621:0.039362356 1622:0.047460411 1623:0.0050811302 1624:0.0015792439 1625:0.00024663765 1626:0.00045071702 1627:0.00079983892 1628:0.002776809 1629:0.0086568994 1630:0.065273538 1631:0.062474154 1632:0.0044932188 1633:0.001134941 1634:0.00021910052 1635:0.00031005064 1636:0.0010757068 1637:0.0014062662 1638:0.0066646235 1639:0.094666958 1640:0.031661425 1641:0.0031469143 1642:0.0020469939 1643:0.0017792751 1644:0.00099649583 1645:0.00352517 1646:0.0016286988 1647:0.01894466 1648:0.03991371 1649:0.032871127 1650:0.0056819948 1651:0.0022432476 1652:0.0018161278 1653:0.00096669787 1654:0.0026504199 1655:0.0047733518 1656:0.013109398 1657:0.051442333 1658:0.038544293 1659:0.004423257 1660:0.001836624 1661:0.0018599984 1662:0.0009460171 1663:0.0020148689 1664:0.0027843558 1665:0.016871605 1666:0.019444343 1667:0.059910253 1668:0.032138813 1669:0.0045281723 1670:0.0018353161 1671:0.0034452584 1672:0.0086352127 1673:0.010812656 1674:0.012147604 1675:0.014635283 1676:0.006875535 1677:0.0027815897 1678:0.0017982831 1679:0.0013944522 1680:0.0012553785 1681:0.0011468889 1682:0.0056728502 1683:0.012836495 1684:0.030035164 1685:0.0079553202 1686:0.00328214 1687:0.0017005533 1688:0.00067893422 1689:0.00064670941 1690:0.00029079767 1691:0.0010926363 1692:0.010753554 1693:0.013714531 1694:0.01274683 1695:0.025523104 1696:0.012725056 1697:0.015732739 1698:0.0069403667 1699:0.0078938333 1700:0.0086231483 1701:0.0057523111 1702:0.056154471 1703:0.053746175 1704:0.0038654916 1705:0.00097638357 1706:0.00018849099 1707:0.00026673486 1708:0.00092542468 1709:0.0012098032 1710:0.0057335394 1711:0.081441462 1712:0.027238151 1713:0.002707273 1714:0.0017610177 1715:0.0015307007 1716:0.00085727993 1717:0.0030326846 1718:0.0014011607 1719:0.016297989 1720:0.017462075 1721:0.0043584192 1722:0.0022681395 1723:0.0010890524 1724:0.0026809643 1725:0.0014915393 1726:0.0051191538 1727:0.014155173 1728:0.059567694 1729:0.044255558 1730:0.033159446 1731:0.0038053037 1732:0.0015800376 1733:0.0016001465 1734:0.00081385334 1735:0.0017333806 1736:0.0023953661 1737:0.01451455 1738:0.016727863 1739:0.051540464 1740:0.027648846 1741:0.0038955619 1742:0.0015789124 1743:0.0029639369 1744:0.0074288263 1745:0.0093020694 1746:0.010450518 1747:0.013496511 1748:0.0033447966 1749:0.0040851235 1750:0.0022371705 1751:0.0023432833 1752:0.012955594 1753:0.0095095383 1754:0.026145872 1755:0.044045303 1756:0.025839088 1757:0.006843918 1758:0.0028236071 1759:0.0014629768 1760:0.00058408338 1761:0.00055636058 1762:0.00025017167 1763:0.000939989 1764:0.0092512239 1765:0.011798536 1766:0.010966029 1767:0.021957386 1768:0.010947296 1769:0.013534789 1770:0.0059707598 1771:0.0067910217 1772:0.0074184476 1773:0.0049486817 1774:0.025775751 1775:0.012104781 1776:0.0047768545 1777:0.0038832831 1778:0.0052869613 1779:0.007867191 1780:0.01236992 1781:0.029056663 1782:0.034905352 1783:0.083481237 1784:0.027920354 1785:0.0027750791 1786:0.0018051239 1787:0.0015690384 1788:0.00087875122 1789:0.0031086407 1790:0.0014362539 1791:0.016706185 1792:0.017899426 1793:0.0044675795 1794:0.0023249469 1795:0.0011163286 1796:0.0027481115 1797:0.0015288962 1798:0.0052473671 1799:0.0145097 1800:0.061059617 1801:0.050786354 1802:0.01696267 1803:0.0034290797 1804:0.00071977917 1805:0.0010491092 1806:0.0004355573 1807:0.00091364066 1808:0.0022849108 1809:0.027180182 1810:0.017146826 1811:0.052831337 1812:0.028341334 1813:0.0039931294 1814:0.0016184576 1815:0.0030381712 1816:0.0076148878 1817:0.0095350472 1818:0.010712259 1819:0.013834542 1820:0.0034285698 1821:0.0041874391 1822:0.0022932021 1823:0.0024019727 1824:0.013280078 1825:0.0097477129 1826:0.026800718 1827:0.045148455 1828:0.017383561 1829:0.0023331735 1830:0.0050632101 1831:0.0024963922 1832:0.0033499601 1833:0.0031360842 1834:0.0059972741 1835:0.011661098 1836:0.035437033 1837:0.01209404 1838:0.011240682 1839:0.022507327 1840:0.011221481 1841:0.013873779 1842:0.0061203022 1843:0.0069611087 1844:0.0076042488 1845:0.0050726258 1846:0.026421327 1847:0.012407956 1848:0.004896495 1849:0.003980543 1850:0.0054193777 1851:0.0080642318 1852:0.012679736 1853:0.029784411 1854:0.035779584 1855:0.008213833 1856:0.0040689074 1857:0.0048074862 1858:0.0046353918 1859:0.0054555596 1860:0.0050129713 1861:0.005983233 1862:0.0093930326 1863:0.019139649 1864:0.021495679 1865:0.0053651812 1866:0.0027920622 1867:0.0013406152 1868:0.0033002468 1869:0.0018360736 1870:0.0063016391 1871:0.017424909 1872:0.073327377 1873:0.060990065 1874:0.020370716 1875:0.0041180314 1876:0.00086439319 1877:0.0012598904 1878:0.00052306702 1879:0.0010972043 1880:0.0027439822 1881:0.032641072 1882:0.024396699 1883:0.005597577 1884:0.0026652848 1885:0.0018827193 1886:0.001780525 1887:0.0024444072 1888:0.0040831356 1889:0.012984384 1890:0.039225467 1891:0.016614102 1892:0.004117419 1893:0.0050287563 1894:0.0027539397 1895:0.0028845638 1896:0.015948238 1897:0.011706169 1898:0.032185368 1899:0.054219432 1900:0.020876169 1901:0.0028019417 1902:0.0060804822 1903:0.0029979537 1904:0.0040230155 1905:0.0037661688 1906:0.0072022132 1907:0.014003982 1908:0.042556845 1909:0.008926319 1910:0.0034981593 1911:0.0061800131 1912:0.0036088852 1913:0.0041725715 1914:0.0061352076 1915:0.0062474231 1916:0.010335126 1917:0.024354659 1918:0.031729754 1919:0.014900893 1920:0.0058802716 1921:0.0047802916 1922:0.0065082088 1923:0.0096844528 1924:0.015227278 1925:0.035768531 1926:0.042968221 1927:0.0098641114 1928:0.0048864093 1929:0.0057733795 1930:0.0055667092 1931:0.0065516601 1932:0.0060201501 1933:0.0071853511 1934:0.011280228 1935:0.02298508 1936:0.0084818155 1937:0.011664006 1938:0.017367143 1939:0.0089626359 1940:0.010551328 1941:0.0060516959 1942:0.002366463 1943:0.0049415031 1944:0.0059679276 1945:0.076746501 1946:0.025633374 1947:0.0051819012 1948:0.0010877042 1949:0.0015853759 1950:0.00065819843 1951:0.0013806608 1952:0.0034528745 1953:0.04107371 1954:0.030699447 1955:0.0070436788 1956:0.003353846 1957:0.0023691091 1958:0.0022405135 1959:0.0030759061 1960:0.0051379902 1961:0.016338825 1962:0.049359143 1963:0.075740479 1964:0.018309137 1965:0.0066334205 1966:0.0058838115 1967:0.0021519016 1968:0.0039640944 1969:0.003889807 1970:0.012440612 1971:0.039787922 1972:0.026269408 1973:0.0035258075 1974:0.0076513402 1975:0.0037724578 1976:0.0050623389 1977:0.0047391369 1978:0.0090628639 1979:0.01762183 1980:0.053551164 1981:0.011232383 1982:0.0044018887 1983:0.007776584 1984:0.0045412201 1985:0.0052505317 1986:0.0077202036 1987:0.0078614093 1988:0.013005147 1989:0.030646548 1990:0.014536676 1991:0.015280569 1992:0.020087929 1993:0.0062143346 1994:0.0062282071 1995:0.0027037887 1996:0.0037363586 1997:0.0056576557 1998:0.014485325 1999:0.012412448 2000:0.0061487854 2001:0.0072648991 2002:0.0070048366 2003:0.0082442444 2004:0.0075754216 2005:0.0090416456 2006:0.014194411 2007:0.028923146 2008:0.010673044 2009:0.014677336 2010:0.021853846 2011:0.011278082 2012:0.013277204 2013:0.0076151169 2014:0.0029778252 2015:0.0062181125 2016:0.0075097079 2017:0.0066607753 2018:0.0053857164 2019:0.0087871114 2020:0.0046982286 2021:0.0039180596 2022:0.0035425685 2023:0.0019421161 2024:0.0039871801 2025:0.006334045 2026:0.034877576 2027:0.0080023082 2028:0.0038102972 2029:0.0026915399 2030:0.0025454427 2031:0.0034945302 2032:0.0058372598 2033:0.018562505 2034:0.056076817 2035:0.086048596 2036:0.02080097 2037:0.0075362152 2038:0.0066845855 2039:0.0024447709 2040:0.0045035994 2041:0.0044192015 2042:0.014133752 2043:0.045202971 2044:0.029995637 2045:0.07266809 2046:0.027495636 2047:0.0061609009 2048:0.0025648489 2049:0.0068370332 2050:0.0036871273 2051:0.0056499341 2052:0.017654095 2053:0.012761086 2054:0.0050009764 2055:0.0088349609 2056:0.0051592705 2057:0.0059651178 2058:0.0087709064 2059:0.0089313304 2060:0.01477512 2061:0.034817476 2062:0.016515087 2063:0.017360222 2064:0.022821853 2065:0.0070600924 2066:0.0070758527 2067:0.0030717687 2068:0.0042448691 2069:0.0064276503 2070:0.016456747 2071:0.009697672 2072:0.0072706556 2073:0.010075575 2074:0.0046951543 2075:0.0036675842 2076:0.0037945264 2077:0.0049309959 2078:0.0092572728 2079:0.0087002302 2080:0.012125622 2081:0.016674889 2082:0.024828108 2083:0.012813005 2084:0.015084202 2085:0.0086515183 2086:0.003383101 2087:0.0070643844 2088:0.0085317632 2089:0.0075672925 2090:0.0061187008 2091:0.009983018 2092:0.0053376476 2093:0.0044512991 2094:0.0040247045 2095:0.0022064338 2096:0.0045298268 2097:0.0071960953 2098:0.018813208 2099:0.0097201336 2100:0.0078799948 2101:0.0073542488 2102:0.0032583138 2103:0.0029272134 2104:0.0036380978 2105:0.0069227326 2106:0.01037389 2107:0.077944711 2108:0.018841976 2109:0.0068264692 2110:0.0060550445 2111:0.0022145272 2112:0.0040794592 2113:0.0040030098 2114:0.012802663 2115:0.040945847 2116:0.027170708 2117:0.06582436 2118:0.024906151 2119:0.0055806795 2120:0.0023232966 2121:0.0061931349 2122:0.0033398808 2123:0.0051178345 2124:0.015991468 2125:0.020851145 2126:0.054347858 2127:0.029706433 2128:0.015277845 2129:0.013417493 2130:0.011439691 2131:0.019055206 2132:0.014507675 2133:0.02179295 2134:0.014959728 2135:0.015725272 2136:0.020672537 2137:0.0063951872 2138:0.006409463 2139:0.0027824757 2140:0.0038450956 2141:0.005822307 2142:0.014906883 2143:0.0087843649 2144:0.0065859198 2145:0.0091266772 2146:0.0042529739 2147:0.0033221783 2148:0.0034371656 2149:0.0044666044 2150:0.0083854413 2151:0.00788086 2152:0.024400275 2153:0.013935571 2154:0.0077028484 2155:0.014515245 2156:0.020920353 2157:0.021841882 2158:0.013497856 2159:0.0091300346 2160:0.015855357 2161:0.0068546203 2162:0.0055424538 2163:0.0090428377 2164:0.0048349584 2165:0.0040320843 2166:0.0036456659 2167:0.0019986364 2168:0.0041032168 2169:0.0065183812 2170:0.017041417 2171:0.0088047106 2172:0.0071378727 2173:0.0066616405 2174:0.002951452 2175:0.0026515343 2176:0.0032954689 2177:0.0062707635 2178:0.0093968976 2179:0.013714866 2180:0.0075316518 2181:0.0081567178 2182:0.0085287848 2183:0.0055925315 2184:0.0036150173 2185:0.006750606 2186:0.0064530401 2187:0.0087424116 2188:0.027511626 2189:0.066650271 2190:0.025218656 2191:0.0056507019 2192:0.0023524475 2193:0.0062708417 2194:0.0033817873 2195:0.0051820492 2196:0.016192118 2197:0.02111277 2198:0.055029776 2199:0.030079167 2200:0.01546954 2201:0.013585846 2202:0.011583228 2203:0.019294297 2204:0.014689706 2205:0.022066392 2206:0.0089105396 2207:0.0071732691 2208:0.0075559337 2209:0.01277195 2210:0.020356456 2211:0.010659117 2212:0.0064817527 2213:0.0093448944 2214:0.013459234 2215:0.0088945841 2216:0.0066685546 2217:0.0092411917 2218:0.0043063369 2219:0.0033638626 2220:0.0034802926 2221:0.0045226482 2222:0.0084906556 2223:0.0079797432 2224:0.024706431 2225:0.014110425 2226:0.0077994978 2227:0.014697371 2228:0.021182844 2229:0.022115937 2230:0.013667217 2231:0.0092445919 2232:0.016054299 2233:0.015707754 2234:0.009661423 2235:0.0077926307 2236:0.010746912 2237:0.019653179 2238:0.013428027 2239:0.01193614 2240:0.012260229 2241:0.017118787 2242:0.017255239 2243:0.0089151859 2244:0.0072274334 2245:0.0067452257 2246:0.0029884847 2247:0.0026848037 2248:0.003336818 2249:0.0063494444 2250:0.0095148031 2251:0.013886949 2252:0.0076261535 2253:0.0082590617 2254:0.0086357975 2255:0.0056627025 2256:0.003660376 2257:0.0068353075 2258:0.0065340078 2259:0.0088521047 2260:0.012977876 2261:0.010945208 2262:0.0086720064 2263:0.0085703516 2264:0.014088506 2265:0.0081182076 2266:0.0078113098 2267:0.01016082 2268:0.0068078982 2269:0.0019742004 2270:0.016711336 2271:0.051592644 2272:0.037053119 2273:0.013695375 2274:0.006106101 2275:0.0020537921 2276:0.0013054881 2277:0.0034538936 2278:0.015747227 2279:0.0072245109 2280:0.0079029184 2281:0.0094738305 2282:0.010118696 2283:0.025169583 2284:0.019330641 2285:0.019007379 2286:0.016997425 2287:0.023890432 2288:0.010605313 2289:0.0088983327 2290:0.0042809951 2291:0.0033968047 2292:0.0068824408 2293:0.013515868 2294:0.039866071 2295:0.045586232 2296:0.0078905253 2297:0.010944433 2298:0.014375045 2299:0.034499802 2300:0.01665071 2301:0.0037665837 2302:0.0011184729 2303:0.0050714952 2304:0.006198464 2305:0.0048115053 2306:0.0036987728 2307:0.0050782738 2308:0.010346577 2309:0.040082481 2310:0.030692752 2311:0.009258965 2312:0.0060033873 2313:0.0039244257 2314:0.027475296 2315:0.0088790646 2316:0.0054233004 2317:0.0056848894 2318:0.0033641611 2319:0.0064983182 2320:0.014600833 2321:0.021946479 2322:0.031665567 2323:0.0068690507 2324:0.0033737323 2325:0.0040186811 2326:0.0062598311 2327:0.018969854 2328:0.0058615105 2329:0.0072052521 2330:0.003991791 2331:0.011573989 2332:0.0046783653 2333:0.0022822772 2334:0.0033084129 2335:0.012024373 2336:0.030086875 2337:0.018981179 2338:0.008611124 2339:0.0037840018 2340:0.0025030421 2341:0.017801661 2342:0.0075985384 2343:0.0056247674 2344:0.0029873846 2345:0.0057743238 2346:0.011461682 2347:0.012023596 2348:0.009399551 2349:0.011145242 2350:0.015898861 2351:0.0072940774 2352:0.0079790177 2353:0.0095650563 2354:0.010216131 2355:0.025411945 2356:0.019516781 2357:0.019190406 2358:0.017161097 2359:0.024120478 2360:0.010707433 2361:0.0089840172 2362:0.0043222178 2363:0.0034295132 2364:0.0069487132 2365:0.013646015 2366:0.040249951 2367:0.046025191 2368:0.032703273 2369:0.0051503801 2370:0.0036566705 2371:0.0041556275 2372:0.004108842 2373:0.0053324378 2374:0.011469327 2375:0.020666746 2376:0.058772217 2377:0.0048578368 2378:0.0037343889 2379:0.0051271734 2380:0.010446207 2381:0.040468443 2382:0.0309883 2383:0.0093481215 2384:0.0060611949 2385:0.003962215 2386:0.027739862 2387:0.0089645628 2388:0.0054755225 2389:0.0057396302 2390:0.0033965553 2391:0.0065608919 2392:0.014741427 2393:0.022157805 2394:0.031970482 2395:0.031993847 2396:0.0084327422 